#pragma once
#include <cstdarg>
namespace Eloquent {
    namespace ML {
        namespace Port {
            class XGBClassifier {
                public:
                    /**
                    * Predict class for features vector
                    */
                    int predict(float *x) {
                        float votes[3] = { 0.0f };
                        // tree #1
                        if (x[2] <= 3.0) {
                            votes[0] += 0.42420384;
                        }

                        else {
                            votes[0] += -0.21844663;
                        }

                        // tree #2
                        if (x[2] <= 3.0) {
                            votes[1] += -0.21210195;
                        }

                        else {
                            if (x[2] <= 5.0) {
                                if (x[3] <= 1.7) {
                                    votes[1] += 0.42043796;
                                }

                                else {
                                    votes[1] += -0.03600001;
                                }
                            }

                            else {
                                if (x[2] <= 5.1) {
                                    votes[1] += -0.03600001;
                                }

                                else {
                                    votes[1] += -0.21140942;
                                }
                            }
                        }

                        // tree #3
                        if (x[2] <= 5.0) {
                            if (x[3] <= 1.7) {
                                votes[2] += -0.21789476;
                            }

                            else {
                                votes[2] += 0.17999999;
                            }
                        }

                        else {
                            votes[2] += 0.40909094;
                        }

                        // tree #4
                        if (x[2] <= 3.0) {
                            votes[0] += 0.29249272;
                        }

                        else {
                            votes[0] += -0.19519345;
                        }

                        // tree #5
                        if (x[2] <= 3.0) {
                            votes[1] += -0.18867998;
                        }

                        else {
                            if (x[2] <= 5.0) {
                                if (x[3] <= 1.7) {
                                    votes[1] += 0.29025364;
                                }

                                else {
                                    votes[1] += -0.03277809;
                                }
                            }

                            else {
                                if (x[3] <= 1.8) {
                                    votes[1] += -0.01250697;
                                }

                                else {
                                    votes[1] += -0.18920031;
                                }
                            }
                        }

                        // tree #6
                        if (x[2] <= 5.0) {
                            if (x[3] <= 1.7) {
                                votes[2] += -0.19433832;
                            }

                            else {
                                votes[2] += 0.14203328;
                            }
                        }

                        else {
                            if (x[3] <= 1.8) {
                                votes[2] += 0.11177227;
                            }

                            else {
                                votes[2] += 0.29474837;
                            }
                        }

                        // tree #7
                        if (x[2] <= 3.0) {
                            votes[0] += 0.23431225;
                        }

                        else {
                            votes[0] += -0.17970206;
                        }

                        // tree #8
                        if (x[2] <= 3.0) {
                            votes[1] += -0.17241398;
                        }

                        else {
                            if (x[2] <= 5.0) {
                                if (x[3] <= 1.7) {
                                    votes[1] += 0.23232596;
                                }

                                else {
                                    votes[1] += -0.028129715;
                                }
                            }

                            else {
                                if (x[2] <= 5.1) {
                                    votes[1] += -0.0043309107;
                                }

                                else {
                                    votes[1] += -0.17307307;
                                }
                            }
                        }

                        // tree #9
                        if (x[2] <= 4.9) {
                            if (x[3] <= 1.7) {
                                votes[2] += -0.17825153;
                            }

                            else {
                                votes[2] += 0.07322933;
                            }
                        }

                        else {
                            if (x[3] <= 1.8) {
                                if (x[0] <= 6.4) {
                                    votes[2] += 0.09813145;
                                }

                                else {
                                    votes[2] += -0.031524166;
                                }
                            }

                            else {
                                votes[2] += 0.23769748;
                            }
                        }

                        // tree #10
                        if (x[2] <= 3.0) {
                            votes[0] += 0.20182998;
                        }

                        else {
                            votes[0] += -0.16859843;
                        }

                        // tree #11
                        if (x[2] <= 3.0) {
                            votes[1] += -0.16013044;
                        }

                        else {
                            if (x[2] <= 5.0) {
                                if (x[3] <= 1.7) {
                                    votes[1] += 0.20031236;
                                }

                                else {
                                    votes[1] += -0.02316868;
                                }
                            }

                            else {
                                if (x[2] <= 5.1) {
                                    votes[1] += 0.0009988555;
                                }

                                else {
                                    votes[1] += -0.16101488;
                                }
                            }
                        }

                        // tree #12
                        if (x[2] <= 4.9) {
                            if (x[3] <= 1.7) {
                                votes[2] += -0.16673285;
                            }

                            else {
                                votes[2] += 0.058495384;
                            }
                        }

                        else {
                            if (x[3] <= 1.8) {
                                if (x[0] <= 6.4) {
                                    votes[2] += 0.08611849;
                                }

                                else {
                                    votes[2] += -0.03466181;
                                }
                            }

                            else {
                                votes[2] += 0.20467873;
                            }
                        }

                        // tree #13
                        if (x[2] <= 3.0) {
                            votes[0] += 0.18116075;
                        }

                        else {
                            votes[0] += -0.16013396;
                        }

                        // tree #14
                        if (x[2] <= 3.0) {
                            votes[1] += -0.15012968;
                        }

                        else {
                            if (x[2] <= 5.1) {
                                if (x[3] <= 1.8) {
                                    if (x[0] <= 5.1) {
                                        votes[1] += 0.022052374;
                                    }

                                    else {
                                        if (x[1] <= 2.4) {
                                            votes[1] += 0.050366912;
                                        }

                                        else {
                                            votes[1] += 0.18885528;
                                        }
                                    }
                                }

                                else {
                                    votes[1] += -0.023456763;
                                }
                            }

                            else {
                                votes[1] += -0.15127754;
                            }
                        }

                        // tree #15
                        if (x[2] <= 5.0) {
                            if (x[3] <= 1.7) {
                                votes[2] += -0.1585704;
                            }

                            else {
                                votes[2] += 0.07825071;
                            }
                        }

                        else {
                            if (x[2] <= 5.1) {
                                votes[2] += 0.049035344;
                            }

                            else {
                                votes[2] += 0.18376948;
                            }
                        }

                        // tree #16
                        if (x[2] <= 3.0) {
                            votes[0] += 0.16665097;
                        }

                        else {
                            votes[0] += -0.1531602;
                        }

                        // tree #17
                        if (x[2] <= 3.0) {
                            votes[1] += -0.14137137;
                        }

                        else {
                            if (x[2] <= 5.1) {
                                if (x[3] <= 1.8) {
                                    if (x[0] <= 5.1) {
                                        votes[1] += 0.014116949;
                                    }

                                    else {
                                        if (x[1] <= 2.4) {
                                            votes[1] += 0.038436122;
                                        }

                                        else {
                                            votes[1] += 0.17436019;
                                        }
                                    }
                                }

                                else {
                                    votes[1] += -0.018719906;
                                }
                            }

                            else {
                                votes[1] += -0.14218906;
                            }
                        }

                        // tree #18
                        if (x[2] <= 4.9) {
                            if (x[3] <= 1.7) {
                                votes[2] += -0.15045363;
                            }

                            else {
                                votes[2] += 0.0347489;
                            }
                        }

                        else {
                            if (x[3] <= 1.8) {
                                if (x[0] <= 6.4) {
                                    votes[2] += 0.07455767;
                                }

                                else {
                                    votes[2] += -0.0435519;
                                }
                            }

                            else {
                                votes[2] += 0.170026;
                            }
                        }

                        // tree #19
                        if (x[2] <= 3.0) {
                            votes[0] += 0.15557612;
                        }

                        else {
                            votes[0] += -0.1471854;
                        }

                        // tree #20
                        if (x[2] <= 5.1) {
                            if (x[2] <= 3.0) {
                                votes[1] += -0.13319346;
                            }

                            else {
                                if (x[3] <= 1.8) {
                                    if (x[0] <= 5.2) {
                                        votes[1] += 0.023691826;
                                    }

                                    else {
                                        if (x[1] <= 2.4) {
                                            votes[1] += 0.029089173;
                                        }

                                        else {
                                            votes[1] += 0.16277789;
                                        }
                                    }
                                }

                                else {
                                    votes[1] += -0.010667463;
                                }
                            }
                        }

                        else {
                            votes[1] += -0.13434157;
                        }

                        // tree #21
                        if (x[2] <= 4.9) {
                            if (x[3] <= 1.7) {
                                votes[2] += -0.14394185;
                            }

                            else {
                                votes[2] += 0.027401956;
                            }
                        }

                        else {
                            if (x[3] <= 1.8) {
                                if (x[0] <= 6.4) {
                                    votes[2] += 0.06906313;
                                }

                                else {
                                    votes[2] += -0.03998296;
                                }
                            }

                            else {
                                votes[2] += 0.15882254;
                            }
                        }

                        // tree #22
                        if (x[2] <= 3.0) {
                            votes[0] += 0.14640823;
                        }

                        else {
                            votes[0] += -0.1416611;
                        }

                        // tree #23
                        if (x[2] <= 5.1) {
                            if (x[2] <= 3.0) {
                                votes[1] += -0.12520069;
                            }

                            else {
                                if (x[2] <= 4.9) {
                                    if (x[3] <= 1.7) {
                                        votes[1] += 0.14393073;
                                    }

                                    else {
                                        votes[1] += 0.016078243;
                                    }
                                }

                                else {
                                    if (x[1] <= 2.6) {
                                        votes[1] += -0.052891057;
                                    }

                                    else {
                                        votes[1] += 0.06878214;
                                    }
                                }
                            }
                        }

                        else {
                            votes[1] += -0.12677936;
                        }

                        // tree #24
                        if (x[2] <= 4.9) {
                            if (x[3] <= 1.7) {
                                votes[2] += -0.13779266;
                            }

                            else {
                                votes[2] += 0.021768644;
                            }
                        }

                        else {
                            if (x[3] <= 1.8) {
                                votes[2] += 0.017732915;
                            }

                            else {
                                votes[2] += 0.14967749;
                            }
                        }

                        // tree #25
                        if (x[2] <= 3.0) {
                            votes[0] += 0.1382666;
                        }

                        else {
                            votes[0] += -0.13608816;
                        }

                        // tree #26
                        if (x[2] <= 5.1) {
                            if (x[2] <= 3.0) {
                                votes[1] += -0.117190816;
                            }

                            else {
                                if (x[1] <= 2.8) {
                                    if (x[2] <= 4.5) {
                                        votes[1] += 0.11461192;
                                    }

                                    else {
                                        votes[1] += -0.07042234;
                                    }
                                }

                                else {
                                    votes[1] += 0.14216794;
                                }
                            }
                        }

                        else {
                            votes[1] += -0.119219914;
                        }

                        // tree #27
                        if (x[3] <= 1.5) {
                            votes[2] += -0.12989531;
                        }

                        else {
                            if (x[2] <= 5.1) {
                                if (x[1] <= 2.8) {
                                    votes[2] += 0.10399053;
                                }

                                else {
                                    votes[2] += -0.09477553;
                                }
                            }

                            else {
                                votes[2] += 0.14087723;
                            }
                        }

                        // tree #28
                        if (x[2] <= 3.0) {
                            votes[0] += 0.13065875;
                        }

                        else {
                            votes[0] += -0.13043116;
                        }

                        // tree #29
                        if (x[2] <= 5.1) {
                            if (x[2] <= 3.0) {
                                votes[1] += -0.10911248;
                            }

                            else {
                                if (x[1] <= 2.8) {
                                    if (x[3] <= 1.6) {
                                        if (x[1] <= 2.4) {
                                            votes[1] += 0.022191556;
                                        }

                                        else {
                                            votes[1] += 0.10299538;
                                        }
                                    }

                                    else {
                                        votes[1] += -0.09441761;
                                    }
                                }

                                else {
                                    votes[1] += 0.12438581;
                                }
                            }
                        }

                        else {
                            votes[1] += -0.110967614;
                        }

                        // tree #30
                        if (x[3] <= 1.5) {
                            votes[2] += -0.12319014;
                        }

                        else {
                            if (x[2] <= 5.1) {
                                if (x[1] <= 2.8) {
                                    votes[2] += 0.088323355;
                                }

                                else {
                                    votes[2] += -0.077574536;
                                }
                            }

                            else {
                                votes[2] += 0.13269204;
                            }
                        }

                        // tree #31
                        if (x[2] <= 3.0) {
                            votes[0] += 0.12328419;
                        }

                        else {
                            votes[0] += -0.12467768;
                        }

                        // tree #32
                        if (x[2] <= 5.1) {
                            if (x[2] <= 3.0) {
                                votes[1] += -0.101029746;
                            }

                            else {
                                if (x[3] <= 1.8) {
                                    if (x[1] <= 2.6) {
                                        if (x[2] <= 4.5) {
                                            votes[1] += 0.08292036;
                                        }

                                        else {
                                            votes[1] += -0.02432392;
                                        }
                                    }

                                    else {
                                        votes[1] += 0.1250369;
                                    }
                                }

                                else {
                                    votes[1] += -0.010052092;
                                }
                            }
                        }

                        else {
                            votes[1] += -0.10275219;
                        }

                        // tree #33
                        if (x[3] <= 1.5) {
                            votes[2] += -0.11652335;
                        }

                        else {
                            if (x[2] <= 5.1) {
                                if (x[1] <= 2.8) {
                                    votes[2] += 0.07848821;
                                }

                                else {
                                    votes[2] += -0.062718496;
                                }
                            }

                            else {
                                votes[2] += 0.12484719;
                            }
                        }

                        // tree #34
                        if (x[2] <= 3.0) {
                            votes[0] += 0.11601923;
                        }

                        else {
                            votes[0] += -0.118761756;
                        }

                        // tree #35
                        if (x[2] <= 5.1) {
                            if (x[2] <= 3.0) {
                                votes[1] += -0.0930725;
                            }

                            else {
                                if (x[3] <= 1.8) {
                                    if (x[1] <= 2.6) {
                                        votes[1] += 0.032476578;
                                    }

                                    else {
                                        votes[1] += 0.116407655;
                                    }
                                }

                                else {
                                    votes[1] += -0.010958368;
                                }
                            }
                        }

                        else {
                            votes[1] += -0.09468747;
                        }

                        // tree #36
                        if (x[3] <= 1.5) {
                            votes[2] += -0.109473765;
                        }

                        else {
                            if (x[2] <= 5.1) {
                                if (x[1] <= 2.8) {
                                    votes[2] += 0.068930686;
                                }

                                else {
                                    votes[2] += -0.055478416;
                                }
                            }

                            else {
                                votes[2] += 0.11718755;
                            }
                        }

                        // tree #37
                        if (x[2] <= 3.0) {
                            votes[0] += 0.10885458;
                        }

                        else {
                            votes[0] += -0.11285316;
                        }

                        // tree #38
                        if (x[2] <= 5.1) {
                            if (x[0] <= 5.5) {
                                votes[1] += -0.071103655;
                            }

                            else {
                                if (x[3] <= 1.8) {
                                    votes[1] += 0.09269347;
                                }

                                else {
                                    votes[1] += -0.011794581;
                                }
                            }
                        }

                        else {
                            votes[1] += -0.08691436;
                        }

                        // tree #39
                        if (x[3] <= 1.5) {
                            votes[2] += -0.10266239;
                        }

                        else {
                            if (x[1] <= 3.2) {
                                if (x[3] <= 1.8) {
                                    votes[2] += 0.010778886;
                                }

                                else {
                                    votes[2] += 0.13066043;
                                }
                            }

                            else {
                                votes[2] += -0.023986215;
                            }
                        }

                        // tree #40
                        if (x[2] <= 3.0) {
                            votes[0] += 0.102382794;
                        }

                        else {
                            votes[0] += -0.10736968;
                        }

                        // tree #41
                        if (x[2] <= 5.1) {
                            if (x[0] <= 5.5) {
                                votes[1] += -0.06495729;
                            }

                            else {
                                if (x[0] <= 6.0) {
                                    votes[1] += 0.106943704;
                                }

                                else {
                                    if (x[0] <= 6.3) {
                                        votes[1] += -0.064239345;
                                    }

                                    else {
                                        votes[1] += 0.06602594;
                                    }
                                }
                            }
                        }

                        else {
                            votes[1] += -0.081373595;
                        }

                        // tree #42
                        if (x[2] <= 5.0) {
                            if (x[3] <= 1.7) {
                                votes[2] += -0.1086548;
                            }

                            else {
                                votes[2] += 0.03374244;
                            }
                        }

                        else {
                            if (x[2] <= 5.1) {
                                votes[2] += 0.02141387;
                            }

                            else {
                                votes[2] += 0.10408364;
                            }
                        }

                        // tree #43
                        if (x[2] <= 3.0) {
                            votes[0] += 0.09600615;
                        }

                        else {
                            votes[0] += -0.101654656;
                        }

                        // tree #44
                        if (x[2] <= 5.0) {
                            if (x[0] <= 5.5) {
                                votes[1] += -0.059244603;
                            }

                            else {
                                if (x[0] <= 6.0) {
                                    votes[1] += 0.113800466;
                                }

                                else {
                                    votes[1] += 0.004474352;
                                }
                            }
                        }

                        else {
                            votes[1] += -0.055840366;
                        }

                        // tree #45
                        if (x[0] <= 6.0) {
                            if (x[1] <= 2.9) {
                                votes[2] += 0.019416213;
                            }

                            else {
                                votes[2] += -0.115511514;
                            }
                        }

                        else {
                            if (x[3] <= 1.8) {
                                votes[2] += -0.027071932;
                            }

                            else {
                                votes[2] += 0.122052565;
                            }
                        }

                        // tree #46
                        if (x[2] <= 3.0) {
                            votes[0] += 0.08985507;
                        }

                        else {
                            votes[0] += -0.09625899;
                        }

                        // tree #47
                        if (x[2] <= 5.0) {
                            if (x[0] <= 5.5) {
                                votes[1] += -0.052814845;
                            }

                            else {
                                if (x[0] <= 6.0) {
                                    votes[1] += 0.103452496;
                                }

                                else {
                                    votes[1] += 0.0056927362;
                                }
                            }
                        }

                        else {
                            votes[1] += -0.049639095;
                        }

                        // tree #48
                        if (x[2] <= 5.0) {
                            if (x[3] <= 1.7) {
                                votes[2] += -0.099124044;
                            }

                            else {
                                votes[2] += 0.030279765;
                            }
                        }

                        else {
                            if (x[2] <= 5.1) {
                                votes[2] += 0.016666548;
                            }

                            else {
                                votes[2] += 0.09098305;
                            }
                        }

                        // tree #49
                        if (x[2] <= 3.0) {
                            votes[0] += 0.08422598;
                        }

                        else {
                            votes[0] += -0.09098461;
                        }

                        // tree #50
                        if (x[2] <= 5.0) {
                            if (x[0] <= 5.5) {
                                votes[1] += -0.048409663;
                            }

                            else {
                                if (x[0] <= 6.0) {
                                    votes[1] += 0.09764097;
                                }

                                else {
                                    votes[1] += 0.0011203765;
                                }
                            }
                        }

                        else {
                            votes[1] += -0.042551722;
                        }

                        // tree #51
                        if (x[0] <= 6.0) {
                            votes[2] += -0.059529003;
                        }

                        else {
                            if (x[3] <= 1.8) {
                                votes[2] += -0.030667989;
                            }

                            else {
                                votes[2] += 0.11243743;
                            }
                        }

                        // tree #52
                        if (x[2] <= 3.0) {
                            votes[0] += 0.07953136;
                        }

                        else {
                            votes[0] += -0.086227745;
                        }

                        // tree #53
                        if (x[0] <= 5.5) {
                            votes[1] += -0.045462884;
                        }

                        else {
                            if (x[3] <= 1.8) {
                                if (x[0] <= 6.3) {
                                    votes[1] += 0.014173333;
                                }

                                else {
                                    votes[1] += 0.07554034;
                                }
                            }

                            else {
                                votes[1] += -0.03539912;
                            }
                        }

                        // tree #54
                        if (x[2] <= 5.0) {
                            if (x[3] <= 1.7) {
                                votes[2] += -0.09073716;
                            }

                            else {
                                votes[2] += 0.029452028;
                            }
                        }

                        else {
                            if (x[0] <= 6.6) {
                                votes[2] += 0.08427145;
                            }

                            else {
                                votes[2] += 0.007624569;
                            }
                        }

                        // tree #55
                        if (x[2] <= 3.5) {
                            votes[0] += 0.06628033;
                        }

                        else {
                            votes[0] += -0.07957052;
                        }

                        // tree #56
                        if (x[2] <= 5.0) {
                            if (x[0] <= 5.5) {
                                votes[1] += -0.041943476;
                            }

                            else {
                                if (x[3] <= 1.7) {
                                    votes[1] += 0.07126469;
                                }

                                else {
                                    votes[1] += 0.009954465;
                                }
                            }
                        }

                        else {
                            votes[1] += -0.037069336;
                        }

                        // tree #57
                        if (x[0] <= 6.0) {
                            votes[2] += -0.054254327;
                        }

                        else {
                            if (x[3] <= 1.8) {
                                votes[2] += -0.027606063;
                            }

                            else {
                                votes[2] += 0.103204265;
                            }
                        }

                        // tree #58
                        votes[0] += -0.009754913;
                        // tree #59
                        if (x[2] <= 5.0) {
                            if (x[0] <= 5.6) {
                                votes[1] += -0.03159807;
                            }

                            else {
                                votes[1] += 0.050342284;
                            }
                        }

                        else {
                            votes[1] += -0.033772677;
                        }

                        // tree #60
                        if (x[1] <= 3.1) {
                            if (x[3] <= 1.8) {
                                votes[2] += -0.015598227;
                            }

                            else {
                                votes[2] += 0.09558315;
                            }
                        }

                        else {
                            votes[2] += -0.060136884;
                        }

                        // tree #61
                        votes[0] += -0.009505715;
                        // tree #62
                        if (x[2] <= 5.0) {
                            if (x[0] <= 5.6) {
                                votes[1] += -0.030172905;
                            }

                            else {
                                votes[1] += 0.046815667;
                            }
                        }

                        else {
                            votes[1] += -0.030704232;
                        }

                        // tree #63
                        if (x[0] <= 6.0) {
                            votes[2] += -0.048515644;
                        }

                        else {
                            if (x[3] <= 1.8) {
                                votes[2] += -0.025111856;
                            }

                            else {
                                votes[2] += 0.096015595;
                            }
                        }

                        // tree #64
                        votes[0] += -0.008727093;
                        // tree #65
                        if (x[0] <= 6.1) {
                            if (x[3] <= 1.8) {
                                votes[1] += -0.03363017;
                            }

                            else {
                                votes[1] += 0.007343943;
                            }
                        }

                        else {
                            votes[1] += 0.028078072;
                        }

                        // tree #66
                        if (x[1] <= 3.1) {
                            if (x[3] <= 1.8) {
                                votes[2] += -0.013112596;
                            }

                            else {
                                votes[2] += 0.089881495;
                            }
                        }

                        else {
                            votes[2] += -0.05474638;
                        }

                        // tree #67
                        votes[0] += -0.009627847;
                        // tree #68
                        if (x[2] <= 5.0) {
                            if (x[0] <= 5.6) {
                                votes[1] += -0.028234964;
                            }

                            else {
                                votes[1] += 0.04416665;
                            }
                        }

                        else {
                            votes[1] += -0.02870814;
                        }

                        // tree #69
                        if (x[0] <= 6.0) {
                            votes[2] += -0.044148993;
                        }

                        else {
                            if (x[3] <= 1.8) {
                                votes[2] += -0.021629509;
                            }

                            else {
                                votes[2] += 0.090671934;
                            }
                        }

                        // tree #70
                        votes[0] += -0.0088836625;
                        // tree #71
                        if (x[0] <= 6.1) {
                            if (x[2] <= 4.3) {
                                votes[1] += 0.00446039;
                            }

                            else {
                                votes[1] += -0.032615595;
                            }
                        }

                        else {
                            votes[1] += 0.027937595;
                        }

                        // tree #72
                        if (x[1] <= 3.1) {
                            if (x[0] <= 6.1) {
                                votes[2] += 0.06608629;
                            }

                            else {
                                votes[2] += -0.01584909;
                            }
                        }

                        else {
                            votes[2] += -0.050216503;
                        }

                        // tree #73
                        votes[0] += -0.008217982;
                        // tree #74
                        if (x[2] <= 5.0) {
                            if (x[0] <= 5.6) {
                                votes[1] += -0.025858022;
                            }

                            else {
                                votes[1] += 0.042183764;
                            }
                        }

                        else {
                            votes[1] += -0.026640948;
                        }

                        // tree #75
                        if (x[0] <= 6.0) {
                            votes[2] += -0.04383456;
                        }

                        else {
                            if (x[3] <= 1.8) {
                                votes[2] += -0.020103145;
                            }

                            else {
                                votes[2] += 0.08667494;
                            }
                        }

                        // tree #76
                        votes[0] += -0.0076366407;
                        // tree #77
                        if (x[0] <= 6.1) {
                            if (x[2] <= 4.3) {
                                votes[1] += 0.0043151113;
                            }

                            else {
                                votes[1] += -0.029808192;
                            }
                        }

                        else {
                            votes[1] += 0.025490357;
                        }

                        // tree #78
                        if (x[0] <= 6.0) {
                            votes[2] += -0.04015018;
                        }

                        else {
                            votes[2] += 0.038672153;
                        }

                        // tree #79
                        votes[0] += -0.006835767;
                        // tree #80
                        if (x[0] <= 6.1) {
                            if (x[2] <= 4.3) {
                                votes[1] += 0.0027084742;
                            }

                            else {
                                votes[1] += -0.027967496;
                            }
                        }

                        else {
                            votes[1] += 0.026271436;
                        }

                        // tree #81
                        if (x[0] <= 6.0) {
                            votes[2] += -0.038408484;
                        }

                        else {
                            votes[2] += 0.035667792;
                        }

                        // tree #82
                        votes[0] += -0.0061965883;
                        // tree #83
                        if (x[0] <= 5.9) {
                            votes[1] += -0.02585524;
                        }

                        else {
                            if (x[2] <= 5.0) {
                                votes[1] += 0.040771335;
                            }

                            else {
                                votes[1] += -0.014287246;
                            }
                        }

                        // tree #84
                        if (x[0] <= 6.0) {
                            votes[2] += -0.036729675;
                        }

                        else {
                            votes[2] += 0.033076413;
                        }

                        // tree #85
                        votes[0] += -0.0066721155;
                        // tree #86
                        if (x[0] <= 6.1) {
                            if (x[3] <= 1.4) {
                                votes[1] += 0.0022487892;
                            }

                            else {
                                votes[1] += -0.0283816;
                            }
                        }

                        else {
                            votes[1] += 0.028886903;
                        }

                        // tree #87
                        if (x[1] <= 2.9) {
                            votes[2] += 0.039719533;
                        }

                        else {
                            votes[2] += -0.028698547;
                        }

                        // tree #88
                        votes[0] += -0.006218185;
                        // tree #89
                        if (x[0] <= 6.1) {
                            if (x[3] <= 1.4) {
                                votes[1] += 0.002354971;
                            }

                            else {
                                votes[1] += -0.026116218;
                            }
                        }

                        else {
                            votes[1] += 0.02610013;
                        }

                        // tree #90
                        if (x[0] <= 6.0) {
                            votes[2] += -0.03614528;
                        }

                        else {
                            votes[2] += 0.031983934;
                        }

                        // tree #91
                        votes[0] += -0.0056813788;
                        // tree #92
                        if (x[0] <= 5.9) {
                            votes[1] += -0.025157426;
                        }

                        else {
                            if (x[3] <= 1.8) {
                                votes[1] += 0.04370691;
                            }

                            else {
                                votes[1] += -0.013793486;
                            }
                        }

                        // tree #93
                        if (x[3] <= 1.8) {
                            votes[2] += -0.027638014;
                        }

                        else {
                            votes[2] += 0.03659464;
                        }

                        // tree #94
                        votes[0] += -0.006106463;
                        // tree #95
                        if (x[0] <= 5.9) {
                            votes[1] += -0.024003325;
                        }

                        else {
                            if (x[2] <= 5.0) {
                                votes[1] += 0.04055074;
                            }

                            else {
                                votes[1] += -0.014219668;
                            }
                        }

                        // tree #96
                        if (x[0] <= 6.0) {
                            votes[2] += -0.036002222;
                        }

                        else {
                            votes[2] += 0.032014128;
                        }

                        // tree #97
                        votes[0] += -0.006575155;
                        // tree #98
                        if (x[0] <= 5.9) {
                            votes[1] += -0.023637583;
                        }

                        else {
                            if (x[3] <= 1.8) {
                                votes[1] += 0.040416975;
                            }

                            else {
                                votes[1] += -0.011689056;
                            }
                        }

                        // tree #99
                        if (x[1] <= 2.9) {
                            votes[2] += 0.03766188;
                        }

                        else {
                            votes[2] += -0.027863823;
                        }

                        // tree #100
                        votes[0] += -0.00712821;
                        // tree #101
                        if (x[0] <= 6.1) {
                            if (x[3] <= 1.4) {
                                votes[1] += 0.0050150594;
                            }

                            else {
                                votes[1] += -0.025019718;
                            }
                        }

                        else {
                            votes[1] += 0.023904286;
                        }

                        // tree #102
                        if (x[0] <= 6.0) {
                            votes[2] += -0.0351656;
                        }

                        else {
                            votes[2] += 0.031856652;
                        }

                        // tree #103
                        votes[0] += -0.0064204587;
                        // tree #104
                        if (x[0] <= 5.9) {
                            votes[1] += -0.02211108;
                        }

                        else {
                            if (x[2] <= 5.0) {
                                votes[1] += 0.03822398;
                            }

                            else {
                                votes[1] += -0.012193154;
                            }
                        }

                        // tree #105
                        if (x[0] <= 6.0) {
                            votes[2] += -0.033596408;
                        }

                        else {
                            votes[2] += 0.029644918;
                        }

                        // tree #106
                        votes[0] += -0.0068208924;
                        // tree #107
                        if (x[0] <= 6.1) {
                            if (x[3] <= 1.4) {
                                votes[1] += 0.0042038774;
                            }

                            else {
                                votes[1] += -0.025675798;
                            }
                        }

                        else {
                            votes[1] += 0.026162276;
                        }

                        // tree #108
                        if (x[1] <= 2.9) {
                            votes[2] += 0.03470042;
                        }

                        else {
                            votes[2] += -0.026021088;
                        }

                        // tree #109
                        votes[0] += -0.0062481957;
                        // tree #110
                        if (x[0] <= 5.6) {
                            votes[1] += -0.023879867;
                        }

                        else {
                            if (x[3] <= 1.8) {
                                votes[1] += 0.041356195;
                            }

                            else {
                                votes[1] += -0.019233493;
                            }
                        }

                        // tree #111
                        if (x[0] <= 6.0) {
                            votes[2] += -0.03294921;
                        }

                        else {
                            votes[2] += 0.028888242;
                        }

                        // tree #112
                        votes[0] += -0.006155378;
                        // tree #113
                        if (x[0] <= 5.9) {
                            votes[1] += -0.02130475;
                        }

                        else {
                            if (x[3] <= 1.8) {
                                votes[1] += 0.038635865;
                            }

                            else {
                                votes[1] += -0.011465335;
                            }
                        }

                        // tree #114
                        if (x[2] <= 5.0) {
                            votes[2] += -0.025174413;
                        }

                        else {
                            votes[2] += 0.03410544;
                        }

                        // tree #115
                        votes[0] += -0.006334486;
                        // tree #116
                        if (x[0] <= 5.9) {
                            votes[1] += -0.020442136;
                        }

                        else {
                            if (x[3] <= 1.8) {
                                votes[1] += 0.03707997;
                            }

                            else {
                                votes[1] += -0.011356165;
                            }
                        }

                        // tree #117
                        if (x[0] <= 6.0) {
                            votes[2] += -0.031341597;
                        }

                        else {
                            votes[2] += 0.02851094;
                        }

                        // tree #118
                        votes[0] += -0.0067570033;
                        // tree #119
                        if (x[0] <= 5.9) {
                            votes[1] += -0.020188753;
                        }

                        else {
                            if (x[3] <= 1.8) {
                                votes[1] += 0.03620778;
                            }

                            else {
                                votes[1] += -0.010191403;
                            }
                        }

                        // tree #120
                        if (x[1] <= 2.9) {
                            votes[2] += 0.033533346;
                        }

                        else {
                            votes[2] += -0.0249098;
                        }

                        // tree #121
                        votes[0] += -0.007183529;
                        // tree #122
                        if (x[0] <= 6.1) {
                            if (x[3] <= 1.4) {
                                votes[1] += 0.006799959;
                            }

                            else {
                                votes[1] += -0.024236726;
                            }
                        }

                        else {
                            votes[1] += 0.021893531;
                        }

                        // tree #123
                        if (x[0] <= 6.0) {
                            votes[2] += -0.031738207;
                        }

                        else {
                            votes[2] += 0.029455101;
                        }

                        // tree #124
                        votes[0] += -0.006428445;
                        // tree #125
                        if (x[0] <= 5.9) {
                            votes[1] += -0.01913698;
                        }

                        else {
                            if (x[3] <= 1.8) {
                                votes[1] += 0.034854308;
                            }

                            else {
                                votes[1] += -0.00955393;
                            }
                        }

                        // tree #126
                        if (x[0] <= 6.0) {
                            votes[2] += -0.030388797;
                        }

                        else {
                            votes[2] += 0.027431361;
                        }

                        // tree #127
                        votes[0] += -0.006829752;
                        // tree #128
                        if (x[0] <= 5.9) {
                            votes[1] += -0.01895532;
                        }

                        else {
                            if (x[3] <= 1.8) {
                                votes[1] += 0.034094684;
                            }

                            else {
                                votes[1] += -0.008579375;
                            }
                        }

                        // tree #129
                        if (x[2] <= 5.0) {
                            votes[2] += -0.023990888;
                        }

                        else {
                            votes[2] += 0.032704655;
                        }

                        // tree #130
                        votes[0] += -0.0069482843;
                        // tree #131
                        if (x[0] <= 5.6) {
                            votes[1] += -0.021156415;
                        }

                        else {
                            if (x[2] <= 5.0) {
                                votes[1] += 0.035686217;
                            }

                            else {
                                votes[1] += -0.016477888;
                            }
                        }

                        // tree #132
                        if (x[1] <= 2.9) {
                            votes[2] += 0.032124892;
                        }

                        else {
                            votes[2] += -0.023728851;
                        }

                        // tree #133
                        votes[0] += -0.006761653;
                        // tree #134
                        if (x[0] <= 6.1) {
                            if (x[3] <= 1.4) {
                                votes[1] += 0.007092009;
                            }

                            else {
                                votes[1] += -0.025030795;
                            }
                        }

                        else {
                            votes[1] += 0.021831714;
                        }

                        // tree #135
                        if (x[0] <= 6.0) {
                            votes[2] += -0.029392997;
                        }

                        else {
                            votes[2] += 0.027807714;
                        }

                        // tree #136
                        votes[0] += -0.006038828;
                        // tree #137
                        if (x[0] <= 6.1) {
                            if (x[3] <= 1.4) {
                                votes[1] += 0.0056164553;
                            }

                            else {
                                votes[1] += -0.023636064;
                            }
                        }

                        else {
                            votes[1] += 0.022142474;
                        }

                        // tree #138
                        if (x[0] <= 6.0) {
                            votes[2] += -0.028255768;
                        }

                        else {
                            votes[2] += 0.025940664;
                        }

                        // tree #139
                        votes[0] += -0.00545162;
                        // tree #140
                        if (x[0] <= 5.9) {
                            votes[1] += -0.019321678;
                        }

                        else {
                            votes[1] += 0.017479032;
                        }

                        // tree #141
                        if (x[3] <= 1.8) {
                            votes[2] += -0.022790426;
                        }

                        else {
                            votes[2] += 0.030605657;
                        }

                        // tree #142
                        votes[0] += -0.005848608;
                        // tree #143
                        if (x[0] <= 5.9) {
                            votes[1] += -0.018547831;
                        }

                        else {
                            votes[1] += 0.016116371;
                        }

                        // tree #144
                        if (x[0] <= 6.0) {
                            votes[2] += -0.027578939;
                        }

                        else {
                            votes[2] += 0.025954438;
                        }

                        // tree #145
                        votes[0] += -0.0063302075;
                        // tree #146
                        if (x[0] <= 5.9) {
                            votes[1] += -0.018264558;
                        }

                        else {
                            votes[1] += 0.015984861;
                        }

                        // tree #147
                        if (x[1] <= 2.9) {
                            votes[2] += 0.030642537;
                        }

                        else {
                            votes[2] += -0.022321545;
                        }

                        // tree #148
                        votes[0] += -0.006729526;
                        // tree #149
                        if (x[0] <= 6.1) {
                            if (x[3] <= 1.4) {
                                votes[1] += 0.0071220435;
                            }

                            else {
                                votes[1] += -0.024048973;
                            }
                        }

                        else {
                            votes[1] += 0.019596778;
                        }

                        // tree #150
                        if (x[0] <= 6.0) {
                            votes[2] += -0.026935993;
                        }

                        else {
                            votes[2] += 0.02644921;
                        }

                        // tree #151
                        votes[0] += -0.006010186;
                        // tree #152
                        if (x[0] <= 5.9) {
                            votes[1] += -0.017319728;
                        }

                        else {
                            votes[1] += 0.015230414;
                        }

                        // tree #153
                        if (x[3] <= 1.8) {
                            votes[2] += -0.021378513;
                        }

                        else {
                            votes[2] += 0.03069698;
                        }

                        // tree #154
                        votes[0] += -0.006279745;
                        // tree #155
                        if (x[0] <= 5.9) {
                            votes[1] += -0.016702773;
                        }

                        else {
                            votes[1] += 0.014151093;
                        }

                        // tree #156
                        if (x[0] <= 6.0) {
                            votes[2] += -0.026396593;
                        }

                        else {
                            votes[2] += 0.026033143;
                        }

                        // tree #157
                        votes[0] += -0.00665493;
                        // tree #158
                        if (x[0] <= 5.9) {
                            votes[1] += -0.016543677;
                        }

                        else {
                            votes[1] += 0.014248611;
                        }

                        // tree #159
                        if (x[0] <= 6.0) {
                            votes[2] += -0.024783967;
                        }

                        else {
                            votes[2] += 0.024815833;
                        }

                        // tree #160
                        votes[0] += -0.0069863996;
                        // tree #161
                        if (x[0] <= 6.1) {
                            if (x[1] <= 3.0) {
                                votes[1] += -0.0007855435;
                            }

                            else {
                                votes[1] += -0.01704558;
                            }
                        }

                        else {
                            votes[1] += 0.01994829;
                        }

                        // tree #162
                        if (x[3] <= 1.8) {
                            votes[2] += -0.019659922;
                        }

                        else {
                            votes[2] += 0.030414924;
                        }

                        // tree #163
                        votes[0] += -0.0069532087;
                        // tree #164
                        if (x[0] <= 5.9) {
                            votes[1] += -0.016671706;
                        }

                        else {
                            votes[1] += 0.014210311;
                        }

                        // tree #165
                        if (x[1] <= 2.9) {
                            votes[2] += 0.030116908;
                        }

                        else {
                            votes[2] += -0.02083288;
                        }

                        // tree #166
                        votes[0] += -0.007209366;
                        // tree #167
                        if (x[0] <= 6.1) {
                            if (x[1] <= 3.0) {
                                votes[1] += 0.0005959833;
                            }

                            else {
                                votes[1] += -0.016065663;
                            }
                        }

                        else {
                            votes[1] += 0.016753236;
                        }

                        // tree #168
                        if (x[0] <= 6.0) {
                            votes[2] += -0.024996938;
                        }

                        else {
                            votes[2] += 0.026077366;
                        }

                        // tree #169
                        votes[0] += -0.0072577316;
                        // tree #170
                        if (x[0] <= 5.9) {
                            votes[1] += -0.015434311;
                        }

                        else {
                            votes[1] += 0.013367888;
                        }

                        // tree #171
                        if (x[2] <= 5.0) {
                            votes[2] += -0.019761102;
                        }

                        else {
                            votes[2] += 0.030145595;
                        }

                        // tree #172
                        votes[0] += -0.0072914273;
                        // tree #173
                        if (x[0] <= 6.1) {
                            if (x[0] <= 5.7) {
                                votes[1] += -0.013758931;
                            }

                            else {
                                votes[1] += -0.003008456;
                            }
                        }

                        else {
                            votes[1] += 0.017424498;
                        }

                        // tree #174
                        if (x[0] <= 6.0) {
                            votes[2] += -0.022965621;
                        }

                        else {
                            votes[2] += 0.024567502;
                        }

                        // tree #175
                        votes[0] += -0.0073843435;
                        // tree #176
                        if (x[0] <= 6.1) {
                            if (x[0] <= 5.7) {
                                votes[1] += -0.013763641;
                            }

                            else {
                                votes[1] += -0.0028896057;
                            }
                        }

                        else {
                            votes[1] += 0.017856956;
                        }

                        // tree #177
                        if (x[3] <= 1.8) {
                            votes[2] += -0.018150907;
                        }

                        else {
                            votes[2] += 0.029476127;
                        }

                        // tree #178
                        votes[0] += -0.0073342063;
                        // tree #179
                        if (x[0] <= 5.9) {
                            votes[1] += -0.015023833;
                        }

                        else {
                            votes[1] += 0.01275631;
                        }

                        // tree #180
                        if (x[1] <= 2.9) {
                            votes[2] += 0.02904481;
                        }

                        else {
                            votes[2] += -0.019376721;
                        }

                        // tree #181
                        votes[0] += -0.0074754036;
                        // tree #182
                        if (x[0] <= 6.0) {
                            votes[1] += 0.013534124;
                        }

                        else {
                            votes[1] += -0.013921394;
                        }

                        // tree #183
                        if (x[0] <= 6.0) {
                            votes[2] += -0.023617446;
                        }

                        else {
                            votes[2] += 0.025530742;
                        }

                        // tree #184
                        votes[0] += -0.0063594566;
                        // tree #185
                        if (x[0] <= 5.9) {
                            votes[1] += -0.015472126;
                        }

                        else {
                            votes[1] += 0.013341312;
                        }

                        // tree #186
                        if (x[3] <= 1.8) {
                            votes[2] += -0.017892515;
                        }

                        else {
                            votes[2] += 0.02855696;
                        }

                        // tree #187
                        votes[0] += -0.0065572336;
                        // tree #188
                        if (x[0] <= 5.9) {
                            votes[1] += -0.014946155;
                        }

                        else {
                            votes[1] += 0.012473461;
                        }

                        // tree #189
                        if (x[2] <= 5.0) {
                            votes[2] += -0.01797718;
                        }

                        else {
                            votes[2] += 0.028348973;
                        }

                        // tree #190
                        votes[0] += -0.0066703535;
                        // tree #191
                        if (x[0] <= 6.1) {
                            if (x[0] <= 5.7) {
                                votes[1] += -0.013420372;
                            }

                            else {
                                votes[1] += -0.0032994722;
                            }
                        }

                        else {
                            votes[1] += 0.01676764;
                        }

                        // tree #192
                        if (x[1] <= 2.9) {
                            votes[2] += 0.027533388;
                        }

                        else {
                            votes[2] += -0.017937133;
                        }

                        // tree #193
                        votes[0] += -0.0067280857;
                        // tree #194
                        if (x[0] <= 6.0) {
                            votes[1] += 0.012503059;
                        }

                        else {
                            votes[1] += -0.013387331;
                        }

                        // tree #195
                        if (x[0] <= 6.0) {
                            votes[2] += -0.022369433;
                        }

                        else {
                            votes[2] += 0.024384461;
                        }

                        // tree #196
                        votes[0] += -0.0057151755;
                        // tree #197
                        if (x[0] <= 6.1) {
                            votes[1] += -0.011665718;
                        }

                        else {
                            votes[1] += 0.018062798;
                        }

                        // tree #198
                        if (x[1] <= 2.9) {
                            votes[2] += 0.025354275;
                        }

                        else {
                            votes[2] += -0.01741813;
                        }

                        // tree #199
                        votes[0] += -0.0058931964;
                        // tree #200
                        if (x[0] <= 6.1) {
                            votes[1] += -0.01040231;
                        }

                        else {
                            votes[1] += 0.016468488;
                        }

                        // tree #201
                        if (x[3] <= 1.8) {
                            votes[2] += -0.018224504;
                        }

                        else {
                            votes[2] += 0.028847734;
                        }

                        // tree #202
                        votes[0] += -0.0059674187;
                        // tree #203
                        if (x[0] <= 5.9) {
                            votes[1] += -0.013437304;
                        }

                        else {
                            votes[1] += 0.01170977;
                        }

                        // tree #204
                        if (x[2] <= 5.0) {
                            votes[2] += -0.018007137;
                        }

                        else {
                            votes[2] += 0.027572632;
                        }

                        // tree #205
                        votes[0] += -0.0060886885;
                        // tree #206
                        if (x[0] <= 6.0) {
                            votes[1] += 0.011870534;
                        }

                        else {
                            votes[1] += -0.012548694;
                        }

                        // tree #207
                        if (x[0] <= 6.0) {
                            votes[2] += -0.02157509;
                        }

                        else {
                            votes[2] += 0.023051815;
                        }

                        // tree #208
                        votes[0] += -0.0051547135;
                        // tree #209
                        if (x[0] <= 6.1) {
                            votes[1] += -0.011226098;
                        }

                        else {
                            votes[1] += 0.01765299;
                        }

                        // tree #210
                        if (x[1] <= 2.9) {
                            votes[2] += 0.024387015;
                        }

                        else {
                            votes[2] += -0.01728258;
                        }

                        // tree #211
                        votes[0] += -0.0053635878;
                        // tree #212
                        if (x[0] <= 5.9) {
                            votes[1] += -0.013625548;
                        }

                        else {
                            votes[1] += 0.012104471;
                        }

                        // tree #213
                        if (x[2] <= 5.0) {
                            votes[2] += -0.016668739;
                        }

                        else {
                            votes[2] += 0.025227021;
                        }

                        // tree #214
                        votes[0] += -0.0055555394;
                        // tree #215
                        if (x[0] <= 6.1) {
                            votes[1] += -0.010405007;
                        }

                        else {
                            votes[1] += 0.016099095;
                        }

                        // tree #216
                        if (x[0] <= 6.0) {
                            votes[2] += -0.020150872;
                        }

                        else {
                            votes[2] += 0.021243257;
                        }

                        // tree #217
                        votes[0] += -0.0057788687;
                        // tree #218
                        if (x[0] <= 6.1) {
                            votes[1] += -0.01005675;
                        }

                        else {
                            votes[1] += 0.016399922;
                        }

                        // tree #219
                        if (x[0] <= 6.0) {
                            votes[2] += -0.019353991;
                        }

                        else {
                            votes[2] += 0.020126367;
                        }

                        // tree #220
                        votes[0] += -0.0059664296;
                        // tree #221
                        if (x[0] <= 5.9) {
                            votes[1] += -0.013414946;
                        }

                        else {
                            votes[1] += 0.012770443;
                        }

                        // tree #222
                        if (x[1] <= 2.9) {
                            votes[2] += 0.022781698;
                        }

                        else {
                            votes[2] += -0.01621912;
                        }

                        // tree #223
                        votes[0] += -0.0061545335;
                        // tree #224
                        if (x[0] <= 6.1) {
                            votes[1] += -0.009314374;
                        }

                        else {
                            votes[1] += 0.015401354;
                        }

                        // tree #225
                        if (x[0] <= 6.0) {
                            votes[2] += -0.019475657;
                        }

                        else {
                            votes[2] += 0.020386236;
                        }

                        // tree #226
                        votes[0] += -0.006278768;
                        // tree #227
                        if (x[0] <= 6.1) {
                            votes[1] += -0.009093842;
                        }

                        else {
                            votes[1] += 0.015695387;
                        }

                        // tree #228
                        if (x[0] <= 6.0) {
                            votes[2] += -0.018678237;
                        }

                        else {
                            votes[2] += 0.019338133;
                        }

                        // tree #229
                        votes[0] += -0.006381039;
                        // tree #230
                        if (x[0] <= 5.9) {
                            votes[1] += -0.012233204;
                        }

                        else {
                            votes[1] += 0.012346095;
                        }

                        // tree #231
                        if (x[0] <= 6.0) {
                            votes[2] += -0.017928138;
                        }

                        else {
                            votes[2] += 0.018408379;
                        }

                        // tree #232
                        votes[0] += -0.0065736617;
                        // tree #233
                        if (x[0] <= 6.1) {
                            votes[1] += -0.009229381;
                        }

                        else {
                            votes[1] += 0.016276157;
                        }

                        // tree #234
                        if (x[1] <= 2.9) {
                            votes[2] += 0.021114409;
                        }

                        else {
                            votes[2] += -0.014827213;
                        }

                        // tree #235
                        votes[0] += -0.006557775;
                        // tree #236
                        if (x[3] <= 1.6) {
                            votes[1] += 0.014776595;
                        }

                        else {
                            votes[1] += -0.011683652;
                        }

                        // tree #237
                        if (x[0] <= 6.0) {
                            votes[2] += -0.01808164;
                        }

                        else {
                            votes[2] += 0.018785058;
                        }

                        // tree #238
                        votes[0] += -0.0054436233;
                        // tree #239
                        if (x[0] <= 5.9) {
                            votes[1] += -0.012704327;
                        }

                        else {
                            votes[1] += 0.012829575;
                        }

                        // tree #240
                        if (x[1] <= 2.9) {
                            votes[2] += 0.019909864;
                        }

                        else {
                            votes[2] += -0.01484647;
                        }

                        // tree #241
                        votes[0] += -0.0056431238;
                        // tree #242
                        if (x[3] <= 1.6) {
                            votes[1] += 0.014203238;
                        }

                        else {
                            votes[1] += -0.011574545;
                        }

                        // tree #243
                        if (x[0] <= 6.0) {
                            votes[2] += -0.017878234;
                        }

                        else {
                            votes[2] += 0.018119115;
                        }

                        // tree #244
                        votes[0] += -0.004631134;
                        // tree #245
                        if (x[0] <= 5.9) {
                            votes[1] += -0.012883182;
                        }

                        else {
                            votes[1] += 0.012705556;
                        }

                        // tree #246
                        if (x[1] <= 2.9) {
                            votes[2] += 0.018768674;
                        }

                        else {
                            votes[2] += -0.0142313065;
                        }

                        // tree #247
                        votes[0] += -0.0049075196;
                        // tree #248
                        if (x[1] <= 2.7) {
                            votes[1] += 0.016125692;
                        }

                        else {
                            votes[1] += -0.010120136;
                        }

                        // tree #249
                        if (x[2] <= 4.9) {
                            votes[2] += -0.013741853;
                        }

                        else {
                            votes[2] += 0.017309558;
                        }

                        // tree #250
                        votes[0] += -0.0046688905;
                        // tree #251
                        if (x[0] <= 5.9) {
                            votes[1] += -0.012474299;
                        }

                        else {
                            votes[1] += 0.012032693;
                        }

                        // tree #252
                        if (x[1] <= 2.9) {
                            votes[2] += 0.018077265;
                        }

                        else {
                            votes[2] += -0.0132086845;
                        }

                        // tree #253
                        votes[0] += -0.004917108;
                        // tree #254
                        if (x[3] <= 1.6) {
                            votes[1] += 0.014041433;
                        }

                        else {
                            votes[1] += -0.012012693;
                        }

                        // tree #255
                        if (x[2] <= 4.9) {
                            votes[2] += -0.012673664;
                        }

                        else {
                            votes[2] += 0.0165558;
                        }

                        // tree #256
                        votes[0] += -0.003861207;
                        // tree #257
                        if (x[1] <= 2.7) {
                            votes[1] += 0.015342205;
                        }

                        else {
                            votes[1] += -0.009806927;
                        }

                        // tree #258
                        if (x[1] <= 2.9) {
                            votes[2] += 0.016943553;
                        }

                        else {
                            votes[2] += -0.012401315;
                        }

                        // tree #259
                        votes[0] += -0.0037196656;
                        // tree #260
                        if (x[1] <= 2.7) {
                            votes[1] += 0.015093583;
                        }

                        else {
                            votes[1] += -0.009578392;
                        }

                        // tree #261
                        if (x[1] <= 2.9) {
                            votes[2] += 0.01640355;
                        }

                        else {
                            votes[2] += -0.012107892;
                        }

                        // tree #262
                        votes[0] += -0.0035901621;
                        // tree #263
                        if (x[0] <= 5.9) {
                            votes[1] += -0.012442993;
                        }

                        else {
                            votes[1] += 0.011646386;
                        }

                        // tree #264
                        if (x[1] <= 2.9) {
                            votes[2] += 0.015897632;
                        }

                        else {
                            votes[2] += -0.011820952;
                        }

                        // tree #265
                        votes[0] += -0.003922851;
                        // tree #266
                        if (x[1] <= 2.7) {
                            votes[1] += 0.016015697;
                        }

                        else {
                            votes[1] += -0.010502557;
                        }

                        // tree #267
                        if (x[2] <= 4.9) {
                            votes[2] += -0.0121916635;
                        }

                        else {
                            votes[2] += 0.015459455;
                        }

                        // tree #268
                        votes[0] += -0.0037901832;
                        // tree #269
                        if (x[3] <= 1.6) {
                            votes[1] += 0.013180715;
                        }

                        else {
                            votes[1] += -0.011236176;
                        }

                        // tree #270
                        if (x[1] <= 2.9) {
                            votes[2] += 0.015421957;
                        }

                        else {
                            votes[2] += -0.011062965;
                        }

                        // tree #271
                        votes[0] += -0.0028860709;
                        // tree #272
                        if (x[0] <= 5.9) {
                            votes[1] += -0.012349884;
                        }

                        else {
                            votes[1] += 0.011279079;
                        }

                        // tree #273
                        if (x[1] <= 2.9) {
                            votes[2] += 0.014561673;
                        }

                        else {
                            votes[2] += -0.010927571;
                        }

                        // tree #274
                        votes[0] += -0.003270119;
                        // tree #275
                        if (x[3] <= 1.6) {
                            votes[1] += 0.013210485;
                        }

                        else {
                            votes[1] += -0.01179774;
                        }

                        // tree #276
                        if (x[2] <= 4.9) {
                            votes[2] += -0.011655675;
                        }

                        else {
                            votes[2] += 0.0145662865;
                        }

                        // tree #277
                        votes[0] += -0.0024000956;
                        // tree #278
                        if (x[1] <= 3.0) {
                            votes[1] += 0.012891325;
                        }

                        else {
                            votes[1] += -0.010198446;
                        }

                        // tree #279
                        if (x[2] <= 4.9) {
                            votes[2] += -0.011029899;
                        }

                        else {
                            votes[2] += 0.013064166;
                        }

                        // tree #280
                        votes[0] += -0.002356291;
                        // tree #281
                        if (x[0] <= 5.9) {
                            votes[1] += -0.012998112;
                        }

                        else {
                            votes[1] += 0.011580812;
                        }

                        // tree #282
                        if (x[1] <= 3.0) {
                            votes[2] += 0.014127276;
                        }

                        else {
                            votes[2] += -0.010922583;
                        }

                        // tree #283
                        votes[0] += -0.0028118263;
                        // tree #284
                        if (x[3] <= 1.6) {
                            votes[1] += 0.012372539;
                        }

                        else {
                            votes[1] += -0.011167782;
                        }

                        // tree #285
                        if (x[2] <= 4.9) {
                            votes[2] += -0.010159613;
                        }

                        else {
                            votes[2] += 0.012790386;
                        }

                        // tree #286
                        votes[0] += -0.0020204268;
                        // tree #287
                        if (x[0] <= 5.9) {
                            votes[1] += -0.01264045;
                        }

                        else {
                            votes[1] += 0.011049112;
                        }

                        // tree #288
                        if (x[2] <= 4.9) {
                            votes[2] += -0.009642411;
                        }

                        else {
                            votes[2] += 0.0114460755;
                        }

                        // tree #289
                        votes[0] += -0.0024784803;
                        // tree #290
                        if (x[1] <= 3.0) {
                            votes[1] += 0.012703895;
                        }

                        else {
                            votes[1] += -0.010311221;
                        }

                        // tree #291
                        if (x[2] <= 4.9) {
                            votes[2] += -0.008851951;
                        }

                        else {
                            votes[2] += 0.011264421;
                        }

                        // tree #292
                        votes[0] += -0.0024262872;
                        // tree #293
                        if (x[0] <= 5.9) {
                            votes[1] += -0.012739404;
                        }

                        else {
                            votes[1] += 0.011071644;
                        }

                        // tree #294
                        if (x[2] <= 4.9) {
                            votes[2] += -0.008084293;
                        }

                        else {
                            votes[2] += 0.010262201;
                        }

                        // tree #295
                        votes[0] += -0.0028481758;
                        // tree #296
                        if (x[0] <= 5.9) {
                            votes[1] += -0.012053676;
                        }

                        else {
                            votes[1] += 0.010351301;
                        }

                        // tree #297
                        if (x[2] <= 4.9) {
                            votes[2] += -0.007426419;
                        }

                        else {
                            votes[2] += 0.0101723755;
                        }

                        // tree #298
                        votes[0] += -0.0032013322;
                        // tree #299
                        if (x[3] <= 1.6) {
                            votes[1] += 0.011996217;
                        }

                        else {
                            votes[1] += -0.011007213;
                        }

                        // tree #300
                        if (x[2] <= 4.9) {
                            votes[2] += -0.006833787;
                        }

                        else {
                            votes[2] += 0.010041591;
                        }

                        // return argmax of votes
                        uint8_t classIdx = 0;
                        float maxVotes = votes[0];

                        for (uint8_t i = 1; i < 3; i++) {
                            if (votes[i] > maxVotes) {
                                classIdx = i;
                                maxVotes = votes[i];
                            }
                        }

                        return classIdx;
                    }

                protected:
                };
            }
        }
    }