#pragma once
#include <cstdarg>
namespace Eloquent {
    namespace ML {
        namespace Port {
            class XGBClassifier {
                public:
                    /**
                    * Predict class for features vector
                    */
                    int predict(float *x) {
                        float votes[3] = { 0.0f };
                        // tree #1
                        if (x[10] <= 101.0) {
                            if (x[9] <= 95.0) {
                                votes[0] += -0.04292507;
                            }

                            else {
                                votes[0] += -0.06319253;
                            }
                        }

                        else {
                            if (x[5] <= 35.26) {
                                votes[0] += -0.05341917;
                            }

                            else {
                                votes[0] += -0.06266221;
                            }
                        }

                        // tree #2
                        if (x[18] <= 101.0) {
                            if (x[0] <= 47.0) {
                                votes[1] += -0.008094444;
                            }

                            else {
                                votes[1] += 0.061090905;
                            }
                        }

                        else {
                            if (x[9] <= 96.0) {
                                votes[1] += 0.063910015;
                            }

                            else {
                                votes[1] += 0.07604381;
                            }
                        }

                        // tree #3
                        if (x[18] <= 101.0) {
                            if (x[0] <= 34.0) {
                                votes[2] += 0.0638961;
                            }

                            else {
                                votes[2] += -0.007550832;
                            }
                        }

                        else {
                            if (x[6] <= 1.0) {
                                votes[2] += -0.016949376;
                            }

                            else {
                                votes[2] += -0.011519662;
                            }
                        }

                        // tree #4
                        if (x[10] <= 101.0) {
                            if (x[9] <= 95.0) {
                                votes[0] += -0.03710469;
                            }

                            else {
                                votes[0] += -0.055756893;
                            }
                        }

                        else {
                            if (x[10] <= 107.0) {
                                votes[0] += -0.04099988;
                            }

                            else {
                                votes[0] += -0.0499823;
                            }
                        }

                        // tree #5
                        if (x[18] <= 101.0) {
                            if (x[5] <= 17.3) {
                                votes[1] += -0.06526693;
                            }

                            else {
                                votes[1] += 0.035925504;
                            }
                        }

                        else {
                            if (x[18] <= 186.0) {
                                votes[1] += 0.06265639;
                            }

                            else {
                                votes[1] += 0.05522973;
                            }
                        }

                        // tree #6
                        if (x[18] <= 101.0) {
                            if (x[17] <= 1.0) {
                                votes[2] += 0.025225922;
                            }

                            else {
                                votes[2] += -0.045671668;
                            }
                        }

                        else {
                            if (x[15] <= 1.0) {
                                votes[2] += -0.012527307;
                            }

                            else {
                                votes[2] += -0.018244157;
                            }
                        }

                        // tree #7
                        if (x[10] <= 101.0) {
                            if (x[9] <= 95.0) {
                                votes[0] += -0.03159955;
                            }

                            else {
                                votes[0] += -0.049228407;
                            }
                        }

                        else {
                            if (x[8] <= 296.5) {
                                votes[0] += -0.041414108;
                            }

                            else {
                                votes[0] += -0.06388162;
                            }
                        }

                        // tree #8
                        if (x[18] <= 101.0) {
                            if (x[0] <= 47.0) {
                                votes[1] += -0.012514492;
                            }

                            else {
                                votes[1] += 0.04490032;
                            }
                        }

                        else {
                            if (x[8] <= 165.4) {
                                votes[1] += 0.05800561;
                            }

                            else {
                                votes[1] += 0.050064217;
                            }
                        }

                        // tree #9
                        if (x[10] <= 62.0) {
                            if (x[8] <= 203.7) {
                                votes[2] += -0.029929636;
                            }

                            else {
                                votes[2] += 0.01910399;
                            }
                        }

                        else {
                            if (x[10] <= 68.0) {
                                votes[2] += -0.01889267;
                            }

                            else {
                                votes[2] += -0.010507867;
                            }
                        }

                        // tree #10
                        if (x[10] <= 101.0) {
                            if (x[9] <= 95.0) {
                                votes[0] += -0.026816113;
                            }

                            else {
                                votes[0] += -0.043450493;
                            }
                        }

                        else {
                            if (x[5] <= 35.26) {
                                votes[0] += -0.03478932;
                            }

                            else {
                                votes[0] += -0.04412241;
                            }
                        }

                        // tree #11
                        if (x[18] <= 101.0) {
                            if (x[5] <= 17.3) {
                                votes[1] += -0.065080665;
                            }

                            else {
                                votes[1] += 0.024710234;
                            }
                        }

                        else {
                            if (x[6] <= 1.0) {
                                votes[1] += 0.043358568;
                            }

                            else {
                                votes[1] += 0.037740078;
                            }
                        }

                        // tree #12
                        if (x[6] <= 1.0) {
                            if (x[8] <= 292.6) {
                                votes[2] += -0.010571141;
                            }

                            else {
                                votes[2] += 0.0021365953;
                            }
                        }

                        else {
                            if (x[0] <= 63.0) {
                                votes[2] += -0.009951896;
                            }

                            else {
                                votes[2] += 0.0031329528;
                            }
                        }

                        // tree #13
                        if (x[10] <= 101.0) {
                            if (x[9] <= 131.0) {
                                votes[0] += -0.033337843;
                            }

                            else {
                                votes[0] += -0.04089004;
                            }
                        }

                        else {
                            if (x[16] <= 1.0) {
                                votes[0] += -0.026590232;
                            }

                            else {
                                votes[0] += -0.034423824;
                            }
                        }

                        // tree #14
                        if (x[9] <= 177.0) {
                            if (x[9] <= 151.0) {
                                votes[1] += 0.033580765;
                            }

                            else {
                                votes[1] += 0.039647937;
                            }
                        }

                        else {
                            if (x[10] <= 68.0) {
                                votes[1] += 0.08288164;
                            }

                            else {
                                votes[1] += 0.014674291;
                            }
                        }

                        // tree #15
                        if (x[17] <= 1.0) {
                            if (x[18] <= 101.0) {
                                votes[2] += 0.02162725;
                            }

                            else {
                                votes[2] += -0.0065656104;
                            }
                        }

                        else {
                            if (x[18] <= 199.0) {
                                votes[2] += -0.011911569;
                            }

                            else {
                                votes[2] += 0.07309912;
                            }
                        }

                        // tree #16
                        if (x[10] <= 101.0) {
                            if (x[9] <= 95.0) {
                                votes[0] += -0.018192416;
                            }

                            else {
                                votes[0] += -0.033753145;
                            }
                        }

                        else {
                            if (x[10] <= 107.0) {
                                votes[0] += -0.020288428;
                            }

                            else {
                                votes[0] += -0.029456709;
                            }
                        }

                        // tree #17
                        if (x[18] <= 101.0) {
                            if (x[0] <= 47.0) {
                                votes[1] += -0.021433506;
                            }

                            else {
                                votes[1] += 0.028343484;
                            }
                        }

                        else {
                            if (x[18] <= 186.0) {
                                votes[1] += 0.03026305;
                            }

                            else {
                                votes[1] += 0.024118489;
                            }
                        }

                        // tree #18
                        if (x[9] <= 99.0) {
                            if (x[8] <= 150.6) {
                                votes[2] += 0.1390181;
                            }

                            else {
                                votes[2] += -0.00089166866;
                            }
                        }

                        else {
                            if (x[15] <= 1.0) {
                                votes[2] += -0.005497712;
                            }

                            else {
                                votes[2] += -0.011388365;
                            }
                        }

                        // tree #19
                        if (x[8] <= 296.5) {
                            if (x[9] <= 139.0) {
                                votes[0] += -0.02394396;
                            }

                            else {
                                votes[0] += -0.029295838;
                            }
                        }

                        else {
                            if (x[5] <= 28.92) {
                                votes[0] += -0.06695791;
                            }

                            else {
                                votes[0] += -0.012990521;
                            }
                        }

                        // tree #20
                        if (x[8] <= 165.4) {
                            if (x[9] <= 99.0) {
                                votes[1] += 0.0026373907;
                            }

                            else {
                                votes[1] += 0.033522364;
                            }
                        }

                        else {
                            if (x[8] <= 195.3) {
                                votes[1] += 0.017536884;
                            }

                            else {
                                votes[1] += 0.025471365;
                            }
                        }

                        // tree #21
                        if (x[7] <= 1.0) {
                            if (x[10] <= 62.0) {
                                votes[2] += 0.0125614;
                            }

                            else {
                                votes[2] += -0.0062568123;
                            }
                        }

                        else {
                            if (x[9] <= 109.0) {
                                votes[2] += 0.0088258935;
                            }

                            else {
                                votes[2] += -0.00454392;
                            }
                        }

                        // tree #22
                        if (x[10] <= 101.0) {
                            if (x[10] <= 64.0) {
                                votes[0] += -0.014386105;
                            }

                            else {
                                votes[0] += -0.02661323;
                            }
                        }

                        else {
                            if (x[0] <= 66.0) {
                                votes[0] += -0.017774804;
                            }

                            else {
                                votes[0] += -0.02567847;
                            }
                        }

                        // tree #23
                        if (x[9] <= 177.0) {
                            if (x[5] <= 15.66) {
                                votes[1] += 0.034132857;
                            }

                            else {
                                votes[1] += 0.020430002;
                            }
                        }

                        else {
                            if (x[0] <= 60.0) {
                                votes[1] += 0.02712265;
                            }

                            else {
                                votes[1] += -0.014179445;
                            }
                        }

                        // tree #24
                        if (x[0] <= 19.0) {
                            if (x[18] <= 115.0) {
                                votes[2] += 0.04672505;
                            }

                            else {
                                votes[2] += -0.030539174;
                            }
                        }

                        else {
                            if (x[0] <= 33.0) {
                                votes[2] += 0.00086558063;
                            }

                            else {
                                votes[2] += -0.0043057036;
                            }
                        }

                        // tree #25
                        if (x[8] <= 296.5) {
                            if (x[9] <= 139.0) {
                                votes[0] += -0.017591827;
                            }

                            else {
                                votes[0] += -0.022744274;
                            }
                        }

                        else {
                            if (x[5] <= 28.92) {
                                votes[0] += -0.059349675;
                            }

                            else {
                                votes[0] += -0.0073662247;
                            }
                        }

                        // tree #26
                        if (x[9] <= 177.0) {
                            if (x[9] <= 151.0) {
                                votes[1] += 0.01600108;
                            }

                            else {
                                votes[1] += 0.020818343;
                            }
                        }

                        else {
                            if (x[10] <= 68.0) {
                                votes[1] += 0.059892215;
                            }

                            else {
                                votes[1] += 0.000111650654;
                            }
                        }

                        // tree #27
                        if (x[17] <= 1.0) {
                            if (x[6] <= 1.0) {
                                votes[2] += -0.003023918;
                            }

                            else {
                                votes[2] += 0.003481621;
                            }
                        }

                        else {
                            if (x[18] <= 199.0) {
                                votes[2] += -0.006905281;
                            }

                            else {
                                votes[2] += 0.068921365;
                            }
                        }

                        // tree #28
                        if (x[7] <= 1.0) {
                            if (x[5] <= 15.11) {
                                votes[0] += -0.07356192;
                            }

                            else {
                                votes[0] += -0.015788777;
                            }
                        }

                        else {
                            if (x[8] <= 186.2) {
                                votes[0] += -0.01172127;
                            }

                            else {
                                votes[0] += -0.024635615;
                            }
                        }

                        // tree #29
                        if (x[5] <= 36.83) {
                            if (x[5] <= 36.55) {
                                votes[1] += 0.01386298;
                            }

                            else {
                                votes[1] += -0.0058001247;
                            }
                        }

                        else {
                            if (x[5] <= 37.22) {
                                votes[1] += 0.04714601;
                            }

                            else {
                                votes[1] += 0.015264622;
                            }
                        }

                        // tree #30
                        if (x[7] <= 1.0) {
                            if (x[10] <= 62.0) {
                                votes[2] += 0.014014328;
                            }

                            else {
                                votes[2] += -0.0035152442;
                            }
                        }

                        else {
                            if (x[8] <= 180.6) {
                                votes[2] += -0.009367368;
                            }

                            else {
                                votes[2] += 0.003270182;
                            }
                        }

                        // tree #31
                        if (x[10] <= 101.0) {
                            if (x[17] <= 1.0) {
                                votes[0] += -0.019167129;
                            }

                            else {
                                votes[0] += -0.010026079;
                            }
                        }

                        else {
                            if (x[9] <= 114.0) {
                                votes[0] += -0.01915857;
                            }

                            else {
                                votes[0] += -0.010095206;
                            }
                        }

                        // tree #32
                        if (x[8] <= 165.4) {
                            if (x[9] <= 99.0) {
                                votes[1] += -0.00692906;
                            }

                            else {
                                votes[1] += 0.020045407;
                            }
                        }

                        else {
                            if (x[8] <= 195.3) {
                                votes[1] += 0.0059393165;
                            }

                            else {
                                votes[1] += 0.012929322;
                            }
                        }

                        // tree #33
                        if (x[10] <= 120.0) {
                            if (x[8] <= 152.4) {
                                votes[2] += 0.01989079;
                            }

                            else {
                                votes[2] += -0.000988497;
                            }
                        }

                        else {
                            if (x[0] <= 88.0) {
                                votes[2] += -0.0068592094;
                            }

                            else {
                                votes[2] += 0.04623004;
                            }
                        }

                        // tree #34
                        if (x[5] <= 39.89) {
                            if (x[5] <= 35.26) {
                                votes[0] += -0.012147645;
                            }

                            else {
                                votes[0] += -0.019030705;
                            }
                        }

                        else {
                            if (x[9] <= 157.0) {
                                votes[0] += -0.005945914;
                            }

                            else {
                                votes[0] += 0.110580735;
                            }
                        }

                        // tree #35
                        if (x[18] <= 101.0) {
                            if (x[9] <= 163.0) {
                                votes[1] += 0.0027266806;
                            }

                            else {
                                votes[1] += -0.056479283;
                            }
                        }

                        else {
                            if (x[18] <= 186.0) {
                                votes[1] += 0.01098625;
                            }

                            else {
                                votes[1] += 0.0056004687;
                            }
                        }

                        // tree #36
                        if (x[10] <= 73.0) {
                            if (x[8] <= 257.1) {
                                votes[2] += -0.008817964;
                            }

                            else {
                                votes[2] += 0.006622483;
                            }
                        }

                        else {
                            if (x[10] <= 76.0) {
                                votes[2] += 0.01108849;
                            }

                            else {
                                votes[2] += -0.00074242754;
                            }
                        }

                        // tree #37
                        if (x[8] <= 296.5) {
                            if (x[8] <= 288.4) {
                                votes[0] += -0.011796262;
                            }

                            else {
                                votes[0] += -2.9746345e-05;
                            }
                        }

                        else {
                            if (x[5] <= 28.92) {
                                votes[0] += -0.04999366;
                            }

                            else {
                                votes[0] += 0.0012866834;
                            }
                        }

                        // tree #38
                        if (x[10] <= 61.0) {
                            if (x[8] <= 228.8) {
                                votes[1] += 0.011573981;
                            }

                            else {
                                votes[1] += -0.027659178;
                            }
                        }

                        else {
                            if (x[10] <= 76.0) {
                                votes[1] += 0.01208363;
                            }

                            else {
                                votes[1] += 0.0076621734;
                            }
                        }

                        // tree #39
                        if (x[0] <= 19.0) {
                            if (x[18] <= 115.0) {
                                votes[2] += 0.044643905;
                            }

                            else {
                                votes[2] += -0.02541475;
                            }
                        }

                        else {
                            if (x[0] <= 33.0) {
                                votes[2] += 0.0034724267;
                            }

                            else {
                                votes[2] += -0.0013378488;
                            }
                        }

                        // tree #40
                        if (x[9] <= 139.0) {
                            if (x[5] <= 15.11) {
                                votes[0] += -0.080788516;
                            }

                            else {
                                votes[0] += -0.0075585246;
                            }
                        }

                        else {
                            if (x[13] <= 1.0) {
                                votes[0] += -0.0054285456;
                            }

                            else {
                                votes[0] += -0.01487657;
                            }
                        }

                        // tree #41
                        if (x[8] <= 165.4) {
                            if (x[0] <= 70.0) {
                                votes[1] += 0.016800383;
                            }

                            else {
                                votes[1] += -0.000684024;
                            }
                        }

                        else {
                            if (x[8] <= 195.3) {
                                votes[1] += 0.0014974399;
                            }

                            else {
                                votes[1] += 0.007917297;
                            }
                        }

                        // tree #42
                        if (x[9] <= 179.0) {
                            if (x[9] <= 171.0) {
                                votes[2] += 0.00015257241;
                            }

                            else {
                                votes[2] += -0.006631495;
                            }
                        }

                        else {
                            if (x[0] <= 83.0) {
                                votes[2] += 0.0045497357;
                            }

                            else {
                                votes[2] += 0.10930832;
                            }
                        }

                        // tree #43
                        if (x[7] <= 1.0) {
                            if (x[5] <= 15.11) {
                                votes[0] += -0.0622015;
                            }

                            else {
                                votes[0] += -0.0068773604;
                            }
                        }

                        else {
                            if (x[0] <= 66.0) {
                                votes[0] += -0.008191459;
                            }

                            else {
                                votes[0] += -0.020269476;
                            }
                        }

                        // tree #44
                        if (x[9] <= 177.0) {
                            if (x[5] <= 15.66) {
                                votes[1] += 0.017690063;
                            }

                            else {
                                votes[1] += 0.005897583;
                            }
                        }

                        else {
                            if (x[0] <= 58.0) {
                                votes[1] += 0.013533897;
                            }

                            else {
                                votes[1] += -0.022780653;
                            }
                        }

                        // tree #45
                        if (x[17] <= 1.0) {
                            if (x[14] <= 1.0) {
                                votes[2] += -0.0027379415;
                            }

                            else {
                                votes[2] += 0.0023874184;
                            }
                        }

                        else {
                            if (x[8] <= 150.6) {
                                votes[2] += 0.12822561;
                            }

                            else {
                                votes[2] += -0.0035853002;
                            }
                        }

                        // tree #46
                        if (x[10] <= 64.0) {
                            if (x[8] <= 154.6) {
                                votes[0] += -0.07666429;
                            }

                            else {
                                votes[0] += 0.0041926866;
                            }
                        }

                        else {
                            if (x[10] <= 76.0) {
                                votes[0] += -0.014674609;
                            }

                            else {
                                votes[0] += -0.0065153292;
                            }
                        }

                        // tree #47
                        if (x[8] <= 276.0) {
                            if (x[16] <= 2.0) {
                                votes[1] += 0.004278705;
                            }

                            else {
                                votes[1] += 0.008473008;
                            }
                        }

                        else {
                            if (x[0] <= 23.0) {
                                votes[1] += 0.028110115;
                            }

                            else {
                                votes[1] += -0.00086688244;
                            }
                        }

                        // tree #48
                        if (x[15] <= 1.0) {
                            if (x[6] <= 1.0) {
                                votes[2] += -0.00025409737;
                            }

                            else {
                                votes[2] += 0.0045763743;
                            }
                        }

                        else {
                            if (x[10] <= 117.0) {
                                votes[2] += 4.270767e-05;
                            }

                            else {
                                votes[2] += -0.019813938;
                            }
                        }

                        // tree #49
                        if (x[8] <= 296.5) {
                            if (x[5] <= 35.16) {
                                votes[0] += -0.00486034;
                            }

                            else {
                                votes[0] += -0.011158425;
                            }
                        }

                        else {
                            if (x[5] <= 23.15) {
                                votes[0] += -0.056553062;
                            }

                            else {
                                votes[0] += -0.004112366;
                            }
                        }

                        // tree #50
                        if (x[5] <= 36.83) {
                            if (x[5] <= 36.16) {
                                votes[1] += 0.0038934972;
                            }

                            else {
                                votes[1] += -0.007942602;
                            }
                        }

                        else {
                            if (x[5] <= 37.22) {
                                votes[1] += 0.033427652;
                            }

                            else {
                                votes[1] += 0.004926838;
                            }
                        }

                        // tree #51
                        if (x[10] <= 62.0) {
                            if (x[0] <= 22.0) {
                                votes[2] += 0.09216585;
                            }

                            else {
                                votes[2] += 0.0035015796;
                            }
                        }

                        else {
                            if (x[10] <= 73.0) {
                                votes[2] += -0.004946821;
                            }

                            else {
                                votes[2] += 0.00087984157;
                            }
                        }

                        // tree #52
                        if (x[5] <= 39.89) {
                            if (x[5] <= 36.83) {
                                votes[0] += -0.0048140283;
                            }

                            else {
                                votes[0] += -0.012021288;
                            }
                        }

                        else {
                            if (x[9] <= 157.0) {
                                votes[0] += 0.0015263822;
                            }

                            else {
                                votes[0] += 0.105544426;
                            }
                        }

                        // tree #53
                        if (x[18] <= 101.0) {
                            if (x[5] <= 38.85) {
                                votes[1] += -0.0070677437;
                            }

                            else {
                                votes[1] += -0.10464101;
                            }
                        }

                        else {
                            if (x[18] <= 186.0) {
                                votes[1] += 0.0043230033;
                            }

                            else {
                                votes[1] += -0.00054156117;
                            }
                        }

                        // tree #54
                        if (x[9] <= 99.0) {
                            if (x[8] <= 150.6) {
                                votes[2] += 0.12091874;
                            }

                            else {
                                votes[2] += 0.004064888;
                            }
                        }

                        else {
                            if (x[9] <= 100.0) {
                                votes[2] += -0.017407289;
                            }

                            else {
                                votes[2] += -5.8978762e-06;
                            }
                        }

                        // tree #55
                        if (x[9] <= 139.0) {
                            if (x[5] <= 15.11) {
                                votes[0] += -0.071833745;
                            }

                            else {
                                votes[0] += -0.002521825;
                            }
                        }

                        else {
                            if (x[9] <= 171.0) {
                                votes[0] += -0.009388546;
                            }

                            else {
                                votes[0] += 0.00023001868;
                            }
                        }

                        // tree #56
                        if (x[8] <= 276.0) {
                            if (x[8] <= 195.3) {
                                votes[1] += 0.0010591227;
                            }

                            else {
                                votes[1] += 0.0049825083;
                            }
                        }

                        else {
                            if (x[0] <= 23.0) {
                                votes[1] += 0.023879295;
                            }

                            else {
                                votes[1] += -0.002400738;
                            }
                        }

                        // tree #57
                        if (x[10] <= 120.0) {
                            if (x[8] <= 152.4) {
                                votes[2] += 0.019262446;
                            }

                            else {
                                votes[2] += 0.0006309801;
                            }
                        }

                        else {
                            if (x[0] <= 88.0) {
                                votes[2] += -0.004556288;
                            }

                            else {
                                votes[2] += 0.04257637;
                            }
                        }

                        // tree #58
                        if (x[7] <= 1.0) {
                            if (x[5] <= 39.89) {
                                votes[0] += -0.0029739256;
                            }

                            else {
                                votes[0] += 0.043923054;
                            }
                        }

                        else {
                            if (x[5] <= 30.37) {
                                votes[0] += -0.003167212;
                            }

                            else {
                                votes[0] += -0.014404296;
                            }
                        }

                        // tree #59
                        if (x[8] <= 165.4) {
                            if (x[5] <= 21.24) {
                                votes[1] += -0.006761191;
                            }

                            else {
                                votes[1] += 0.011447908;
                            }
                        }

                        else {
                            if (x[8] <= 192.8) {
                                votes[1] += -0.0026919048;
                            }

                            else {
                                votes[1] += 0.003091942;
                            }
                        }

                        // tree #60
                        if (x[0] <= 33.0) {
                            if (x[10] <= 62.0) {
                                votes[2] += 0.039555136;
                            }

                            else {
                                votes[2] += 0.0021234623;
                            }
                        }

                        else {
                            if (x[18] <= 186.0) {
                                votes[2] += -0.0014100085;
                            }

                            else {
                                votes[2] += 0.0058097974;
                            }
                        }

                        // tree #61
                        if (x[10] <= 101.0) {
                            if (x[12] <= 2.0) {
                                votes[0] += -0.0015407271;
                            }

                            else {
                                votes[0] += -0.009372118;
                            }
                        }

                        else {
                            if (x[9] <= 114.0) {
                                votes[0] += -0.007889047;
                            }

                            else {
                                votes[0] += 0.0014381697;
                            }
                        }

                        // tree #62
                        if (x[6] <= 1.0) {
                            if (x[10] <= 64.0) {
                                votes[1] += -0.00629278;
                            }

                            else {
                                votes[1] += 0.0033331562;
                            }
                        }

                        else {
                            if (x[9] <= 112.0) {
                                votes[1] += -0.01006886;
                            }

                            else {
                                votes[1] += 0.0019093864;
                            }
                        }

                        // tree #63
                        if (x[0] <= 19.0) {
                            if (x[8] <= 188.0) {
                                votes[2] += -0.050551612;
                            }

                            else {
                                votes[2] += 0.0035719615;
                            }
                        }

                        else {
                            if (x[0] <= 33.0) {
                                votes[2] += 0.003915607;
                            }

                            else {
                                votes[2] += -0.00032666477;
                            }
                        }

                        // tree #64
                        if (x[8] <= 296.5) {
                            if (x[8] <= 288.4) {
                                votes[0] += -0.0033661635;
                            }

                            else {
                                votes[0] += 0.0073383125;
                            }
                        }

                        else {
                            if (x[8] <= 297.1) {
                                votes[0] += -0.07108302;
                            }

                            else {
                                votes[0] += -0.0062852763;
                            }
                        }

                        // tree #65
                        if (x[9] <= 177.0) {
                            if (x[9] <= 173.0) {
                                votes[1] += 0.0015748244;
                            }

                            else {
                                votes[1] += 0.010752471;
                            }
                        }

                        else {
                            if (x[10] <= 68.0) {
                                votes[1] += 0.041367803;
                            }

                            else {
                                votes[1] += -0.012450754;
                            }
                        }

                        // tree #66
                        if (x[10] <= 73.0) {
                            if (x[8] <= 257.1) {
                                votes[2] += -0.0067033432;
                            }

                            else {
                                votes[2] += 0.0071267164;
                            }
                        }

                        else {
                            if (x[18] <= 168.0) {
                                votes[2] += 0.0028488846;
                            }

                            else {
                                votes[2] += -0.0026972606;
                            }
                        }

                        // tree #67
                        if (x[13] <= 1.0) {
                            if (x[18] <= 181.0) {
                                votes[0] += -0.002288141;
                            }

                            else {
                                votes[0] += 0.0155316265;
                            }
                        }

                        else {
                            if (x[5] <= 35.16) {
                                votes[0] += -0.0024090137;
                            }

                            else {
                                votes[0] += -0.010059934;
                            }
                        }

                        // tree #68
                        if (x[18] <= 101.0) {
                            if (x[5] <= 17.3) {
                                votes[1] += -0.082333185;
                            }

                            else {
                                votes[1] += -0.0059061213;
                            }
                        }

                        else {
                            if (x[18] <= 186.0) {
                                votes[1] += 0.002185857;
                            }

                            else {
                                votes[1] += -0.0020690127;
                            }
                        }

                        // tree #69
                        if (x[17] <= 1.0) {
                            if (x[14] <= 1.0) {
                                votes[2] += -0.002029273;
                            }

                            else {
                                votes[2] += 0.0025820348;
                            }
                        }

                        else {
                            if (x[18] <= 199.0) {
                                votes[2] += -0.00314685;
                            }

                            else {
                                votes[2] += 0.064013354;
                            }
                        }

                        // tree #70
                        if (x[9] <= 139.0) {
                            if (x[0] <= 78.0) {
                                votes[0] += 0.0014496623;
                            }

                            else {
                                votes[0] += -0.00970771;
                            }
                        }

                        else {
                            if (x[9] <= 140.0) {
                                votes[0] += -0.028796935;
                            }

                            else {
                                votes[0] += -0.004026445;
                            }
                        }

                        // tree #71
                        if (x[8] <= 165.4) {
                            if (x[13] <= 2.0) {
                                votes[1] += 0.012777628;
                            }

                            else {
                                votes[1] += -0.0016730664;
                            }
                        }

                        else {
                            if (x[8] <= 195.3) {
                                votes[1] += -0.0033081917;
                            }

                            else {
                                votes[1] += 0.0018905624;
                            }
                        }

                        // tree #72
                        if (x[15] <= 1.0) {
                            if (x[9] <= 179.0) {
                                votes[2] += 0.00073740137;
                            }

                            else {
                                votes[2] += 0.018785153;
                            }
                        }

                        else {
                            if (x[5] <= 35.26) {
                                votes[2] += -0.006685573;
                            }

                            else {
                                votes[2] += 0.012047263;
                            }
                        }

                        // tree #73
                        if (x[10] <= 64.0) {
                            if (x[8] <= 154.6) {
                                votes[0] += -0.069613695;
                            }

                            else {
                                votes[0] += 0.008763124;
                            }
                        }

                        else {
                            if (x[10] <= 76.0) {
                                votes[0] += -0.008740827;
                            }

                            else {
                                votes[0] += -0.0011243053;
                            }
                        }

                        // tree #74
                        if (x[8] <= 239.3) {
                            if (x[8] <= 216.0) {
                                votes[1] += 0.00028028435;
                            }

                            else {
                                votes[1] += 0.007617704;
                            }
                        }

                        else {
                            if (x[8] <= 244.1) {
                                votes[1] += -0.01699354;
                            }

                            else {
                                votes[1] += 0.00064206705;
                            }
                        }

                        // tree #75
                        if (x[5] <= 22.86) {
                            if (x[9] <= 105.0) {
                                votes[2] += 0.014762021;
                            }

                            else {
                                votes[2] += -9.123024e-05;
                            }
                        }

                        else {
                            if (x[9] <= 133.0) {
                                votes[2] += -0.0034737065;
                            }

                            else {
                                votes[2] += 0.0020718446;
                            }
                        }

                        // tree #76
                        if (x[16] <= 1.0) {
                            if (x[10] <= 95.0) {
                                votes[0] += -0.0043658502;
                            }

                            else {
                                votes[0] += 0.00632799;
                            }
                        }

                        else {
                            if (x[10] <= 64.0) {
                                votes[0] += 0.013132358;
                            }

                            else {
                                votes[0] += -0.004121803;
                            }
                        }

                        // tree #77
                        if (x[6] <= 1.0) {
                            if (x[10] <= 64.0) {
                                votes[1] += -0.00666141;
                            }

                            else {
                                votes[1] += 0.0020089082;
                            }
                        }

                        else {
                            if (x[0] <= 84.0) {
                                votes[1] += -0.00028731496;
                            }

                            else {
                                votes[1] += -0.018515443;
                            }
                        }

                        // tree #78
                        if (x[7] <= 1.0) {
                            if (x[5] <= 17.3) {
                                votes[2] += -0.009301233;
                            }

                            else {
                                votes[2] += 0.0003668609;
                            }
                        }

                        else {
                            if (x[9] <= 113.0) {
                                votes[2] += 0.010457888;
                            }

                            else {
                                votes[2] += -0.00054739363;
                            }
                        }

                        // tree #79
                        if (x[13] <= 1.0) {
                            if (x[18] <= 181.0) {
                                votes[0] += -0.0010550213;
                            }

                            else {
                                votes[0] += 0.0148116145;
                            }
                        }

                        else {
                            if (x[9] <= 139.0) {
                                votes[0] += -6.4064494e-05;
                            }

                            else {
                                votes[0] += -0.0057537383;
                            }
                        }

                        // tree #80
                        if (x[8] <= 276.0) {
                            if (x[16] <= 2.0) {
                                votes[1] += 6.2998304e-05;
                            }

                            else {
                                votes[1] += 0.003776919;
                            }
                        }

                        else {
                            if (x[0] <= 23.0) {
                                votes[1] += 0.020094477;
                            }

                            else {
                                votes[1] += -0.0040313005;
                            }
                        }

                        // tree #81
                        if (x[10] <= 73.0) {
                            if (x[18] <= 162.0) {
                                votes[2] += -0.0070417346;
                            }

                            else {
                                votes[2] += 0.0050197686;
                            }
                        }

                        else {
                            if (x[18] <= 168.0) {
                                votes[2] += 0.0025663476;
                            }

                            else {
                                votes[2] += -0.002503749;
                            }
                        }

                        // tree #82
                        if (x[8] <= 296.5) {
                            if (x[8] <= 288.4) {
                                votes[0] += -0.0015231711;
                            }

                            else {
                                votes[0] += 0.008075384;
                            }
                        }

                        else {
                            if (x[5] <= 28.92) {
                                votes[0] += -0.037046038;
                            }

                            else {
                                votes[0] += 0.011919463;
                            }
                        }

                        // tree #83
                        if (x[8] <= 295.4) {
                            if (x[8] <= 292.6) {
                                votes[1] += 0.0006489568;
                            }

                            else {
                                votes[1] += -0.0141135305;
                            }
                        }

                        else {
                            if (x[18] <= 106.0) {
                                votes[1] += 0.06648612;
                            }

                            else {
                                votes[1] += 0.0044048713;
                            }
                        }

                        // tree #84
                        if (x[5] <= 22.86) {
                            if (x[8] <= 153.6) {
                                votes[2] += 0.03458426;
                            }

                            else {
                                votes[2] += 0.0014627104;
                            }
                        }

                        else {
                            if (x[9] <= 133.0) {
                                votes[2] += -0.0032610905;
                            }

                            else {
                                votes[2] += 0.0018073804;
                            }
                        }

                        // tree #85
                        if (x[7] <= 1.0) {
                            if (x[5] <= 15.11) {
                                votes[0] += -0.051906057;
                            }

                            else {
                                votes[0] += 0.00034933258;
                            }
                        }

                        else {
                            if (x[0] <= 66.0) {
                                votes[0] += -0.00031451206;
                            }

                            else {
                                votes[0] += -0.011833444;
                            }
                        }

                        // tree #86
                        if (x[18] <= 101.0) {
                            if (x[10] <= 105.0) {
                                votes[1] += 0.0021817177;
                            }

                            else {
                                votes[1] += -0.043155707;
                            }
                        }

                        else {
                            if (x[18] <= 105.0) {
                                votes[1] += 0.0072498242;
                            }

                            else {
                                votes[1] += 0.0003605454;
                            }
                        }

                        // tree #87
                        if (x[9] <= 171.0) {
                            if (x[9] <= 165.0) {
                                votes[2] += 1.5237157e-05;
                            }

                            else {
                                votes[2] += 0.00914976;
                            }
                        }

                        else {
                            if (x[0] <= 51.0) {
                                votes[2] += -0.014792472;
                            }

                            else {
                                votes[2] += 0.0052999803;
                            }
                        }

                        // tree #88
                        if (x[10] <= 101.0) {
                            if (x[18] <= 124.0) {
                                votes[0] += -0.0091025345;
                            }

                            else {
                                votes[0] += -0.00047852914;
                            }
                        }

                        else {
                            if (x[10] <= 107.0) {
                                votes[0] += 0.0092998035;
                            }

                            else {
                                votes[0] += -0.0008524571;
                            }
                        }

                        // tree #89
                        if (x[9] <= 177.0) {
                            if (x[9] <= 151.0) {
                                votes[1] += -0.00044290736;
                            }

                            else {
                                votes[1] += 0.0032925045;
                            }
                        }

                        else {
                            if (x[5] <= 16.54) {
                                votes[1] += -0.06403517;
                            }

                            else {
                                votes[1] += -0.0023173057;
                            }
                        }

                        // tree #90
                        if (x[10] <= 120.0) {
                            if (x[8] <= 152.4) {
                                votes[2] += 0.01651266;
                            }

                            else {
                                votes[2] += 0.00052121625;
                            }
                        }

                        else {
                            if (x[9] <= 129.0) {
                                votes[2] += 0.004800458;
                            }

                            else {
                                votes[2] += -0.009087772;
                            }
                        }

                        // tree #91
                        if (x[5] <= 39.89) {
                            if (x[5] <= 37.89) {
                                votes[0] += -0.00034422928;
                            }

                            else {
                                votes[0] += -0.007900628;
                            }
                        }

                        else {
                            if (x[9] <= 159.0) {
                                votes[0] += 0.0036719136;
                            }

                            else {
                                votes[0] += 0.09776827;
                            }
                        }

                        // tree #92
                        if (x[8] <= 165.4) {
                            if (x[0] <= 70.0) {
                                votes[1] += 0.008644281;
                            }

                            else {
                                votes[1] += -0.0071695335;
                            }
                        }

                        else {
                            if (x[8] <= 192.8) {
                                votes[1] += -0.0039488166;
                            }

                            else {
                                votes[1] += 0.00090572046;
                            }
                        }

                        // tree #93
                        if (x[0] <= 33.0) {
                            if (x[10] <= 62.0) {
                                votes[2] += 0.035060853;
                            }

                            else {
                                votes[2] += 0.0017995881;
                            }
                        }

                        else {
                            if (x[18] <= 186.0) {
                                votes[2] += -0.0014176023;
                            }

                            else {
                                votes[2] += 0.0054252925;
                            }
                        }

                        // tree #94
                        if (x[16] <= 1.0) {
                            if (x[8] <= 153.0) {
                                votes[0] += 0.0379666;
                            }

                            else {
                                votes[0] += 0.0011386423;
                            }
                        }

                        else {
                            if (x[8] <= 152.4) {
                                votes[0] += -0.031141246;
                            }

                            else {
                                votes[0] += -0.0015548355;
                            }
                        }

                        // tree #95
                        if (x[0] <= 79.0) {
                            if (x[0] <= 74.0) {
                                votes[1] += 0.00058169407;
                            }

                            else {
                                votes[1] += -0.009390024;
                            }
                        }

                        else {
                            if (x[9] <= 117.0) {
                                votes[1] += 0.017219026;
                            }

                            else {
                                votes[1] += -0.002319358;
                            }
                        }

                        // tree #96
                        if (x[10] <= 73.0) {
                            if (x[8] <= 239.3) {
                                votes[2] += -0.0072842627;
                            }

                            else {
                                votes[2] += 0.0044948026;
                            }
                        }

                        else {
                            if (x[10] <= 76.0) {
                                votes[2] += 0.01045202;
                            }

                            else {
                                votes[2] += 0.00026655293;
                            }
                        }

                        // tree #97
                        if (x[13] <= 1.0) {
                            if (x[18] <= 196.0) {
                                votes[0] += 0.0037655015;
                            }

                            else {
                                votes[0] += -0.028777285;
                            }
                        }

                        else {
                            if (x[5] <= 35.16) {
                                votes[0] += -0.00032956823;
                            }

                            else {
                                votes[0] += -0.0071657165;
                            }
                        }

                        // tree #98
                        if (x[9] <= 96.0) {
                            if (x[18] <= 112.0) {
                                votes[1] += -0.033821557;
                            }

                            else {
                                votes[1] += -0.00045832503;
                            }
                        }

                        else {
                            if (x[9] <= 97.0) {
                                votes[1] += 0.01934884;
                            }

                            else {
                                votes[1] += 0.00039866247;
                            }
                        }

                        // tree #99
                        if (x[9] <= 109.0) {
                            if (x[8] <= 234.6) {
                                votes[2] += -0.004540026;
                            }

                            else {
                                votes[2] += 0.011488424;
                            }
                        }

                        else {
                            if (x[10] <= 111.0) {
                                votes[2] += 0.0008294427;
                            }

                            else {
                                votes[2] += -0.0040657236;
                            }
                        }

                        // tree #100
                        if (x[9] <= 126.0) {
                            if (x[9] <= 116.0) {
                                votes[0] += -0.002535266;
                            }

                            else {
                                votes[0] += 0.012297529;
                            }
                        }

                        else {
                            if (x[18] <= 143.0) {
                                votes[0] += 0.0017406747;
                            }

                            else {
                                votes[0] += -0.004789757;
                            }
                        }

                        // tree #101
                        if (x[5] <= 39.7) {
                            if (x[5] <= 39.61) {
                                votes[1] += 0.0002320287;
                            }

                            else {
                                votes[1] += 0.03365004;
                            }
                        }

                        else {
                            if (x[13] <= 1.0) {
                                votes[1] += -0.04464813;
                            }

                            else {
                                votes[1] += -0.0012207784;
                            }
                        }

                        // tree #102
                        if (x[17] <= 1.0) {
                            if (x[2] <= 1.0) {
                                votes[2] += 0.0021141302;
                            }

                            else {
                                votes[2] += -0.0023157806;
                            }
                        }

                        else {
                            if (x[8] <= 150.6) {
                                votes[2] += 0.1071439;
                            }

                            else {
                                votes[2] += -0.002745725;
                            }
                        }

                        // tree #103
                        if (x[7] <= 1.0) {
                            if (x[5] <= 15.11) {
                                votes[0] += -0.04844741;
                            }

                            else {
                                votes[0] += 0.0008547849;
                            }
                        }

                        else {
                            if (x[8] <= 186.2) {
                                votes[0] += 0.0061447653;
                            }

                            else {
                                votes[0] += -0.0062678093;
                            }
                        }

                        // tree #104
                        if (x[8] <= 294.8) {
                            if (x[8] <= 292.6) {
                                votes[1] += 0.0002180836;
                            }

                            else {
                                votes[1] += -0.016846871;
                            }
                        }

                        else {
                            if (x[18] <= 106.0) {
                                votes[1] += 0.063233726;
                            }

                            else {
                                votes[1] += 0.0028930656;
                            }
                        }

                        // tree #105
                        if (x[0] <= 19.0) {
                            if (x[18] <= 115.0) {
                                votes[2] += 0.041702982;
                            }

                            else {
                                votes[2] += -0.020824911;
                            }
                        }

                        else {
                            if (x[0] <= 33.0) {
                                votes[2] += 0.0033602396;
                            }

                            else {
                                votes[2] += -0.0004891002;
                            }
                        }

                        // tree #106
                        if (x[8] <= 245.3) {
                            if (x[8] <= 244.1) {
                                votes[0] += -0.0011734726;
                            }

                            else {
                                votes[0] += -0.042911734;
                            }
                        }

                        else {
                            if (x[18] <= 161.0) {
                                votes[0] += -0.0027246051;
                            }

                            else {
                                votes[0] += 0.009054313;
                            }
                        }

                        // tree #107
                        if (x[18] <= 101.0) {
                            if (x[0] <= 47.0) {
                                votes[1] += -0.03768942;
                            }

                            else {
                                votes[1] += 0.005743771;
                            }
                        }

                        else {
                            if (x[6] <= 1.0) {
                                votes[1] += 0.00093535514;
                            }

                            else {
                                votes[1] += -0.0023674069;
                            }
                        }

                        // tree #108
                        if (x[15] <= 1.0) {
                            if (x[5] <= 17.3) {
                                votes[2] += -0.0043742037;
                            }

                            else {
                                votes[2] += 0.0011745909;
                            }
                        }

                        else {
                            if (x[5] <= 35.26) {
                                votes[2] += -0.0061847377;
                            }

                            else {
                                votes[2] += 0.010579944;
                            }
                        }

                        // tree #109
                        if (x[8] <= 296.5) {
                            if (x[8] <= 277.7) {
                                votes[0] += -0.00086516375;
                            }

                            else {
                                votes[0] += 0.0051017883;
                            }
                        }

                        else {
                            if (x[8] <= 297.1) {
                                votes[0] += -0.06451802;
                            }

                            else {
                                votes[0] += -0.0013635684;
                            }
                        }

                        // tree #110
                        if (x[5] <= 36.83) {
                            if (x[5] <= 34.94) {
                                votes[1] += 0.00026243387;
                            }

                            else {
                                votes[1] += -0.006870994;
                            }
                        }

                        else {
                            if (x[5] <= 37.22) {
                                votes[1] += 0.025930915;
                            }

                            else {
                                votes[1] += 0.00020948001;
                            }
                        }

                        // tree #111
                        if (x[5] <= 22.86) {
                            if (x[9] <= 105.0) {
                                votes[2] += 0.012575804;
                            }

                            else {
                                votes[2] += -8.63e-05;
                            }
                        }

                        else {
                            if (x[5] <= 22.96) {
                                votes[2] += -0.032603648;
                            }

                            else {
                                votes[2] += -0.0005705277;
                            }
                        }

                        // tree #112
                        if (x[5] <= 39.89) {
                            if (x[5] <= 37.89) {
                                votes[0] += 8.877073e-05;
                            }

                            else {
                                votes[0] += -0.0062187514;
                            }
                        }

                        else {
                            if (x[9] <= 161.0) {
                                votes[0] += 0.0058075893;
                            }

                            else {
                                votes[0] += 0.09374306;
                            }
                        }

                        // tree #113
                        if (x[9] <= 177.0) {
                            if (x[5] <= 15.66) {
                                votes[1] += 0.0099840015;
                            }

                            else {
                                votes[1] += 6.140512e-05;
                            }
                        }

                        else {
                            if (x[0] <= 61.0) {
                                votes[1] += 0.006937479;
                            }

                            else {
                                votes[1] += -0.024629852;
                            }
                        }

                        // tree #114
                        if (x[10] <= 73.0) {
                            if (x[8] <= 151.2) {
                                votes[2] += -0.06317324;
                            }

                            else {
                                votes[2] += -0.0019458289;
                            }
                        }

                        else {
                            if (x[8] <= 248.8) {
                                votes[2] += 0.0022388094;
                            }

                            else {
                                votes[2] += -0.0023014569;
                            }
                        }

                        // tree #115
                        if (x[9] <= 126.0) {
                            if (x[9] <= 116.0) {
                                votes[0] += -0.0019721107;
                            }

                            else {
                                votes[0] += 0.011233683;
                            }
                        }

                        else {
                            if (x[18] <= 143.0) {
                                votes[0] += 0.0019129362;
                            }

                            else {
                                votes[0] += -0.0042754216;
                            }
                        }

                        // tree #116
                        if (x[0] <= 79.0) {
                            if (x[0] <= 74.0) {
                                votes[1] += 0.0003392661;
                            }

                            else {
                                votes[1] += -0.008617966;
                            }
                        }

                        else {
                            if (x[9] <= 117.0) {
                                votes[1] += 0.015388359;
                            }

                            else {
                                votes[1] += -0.0022735707;
                            }
                        }

                        // tree #117
                        if (x[5] <= 22.86) {
                            if (x[8] <= 153.6) {
                                votes[2] += 0.029883677;
                            }

                            else {
                                votes[2] += 0.0011798682;
                            }
                        }

                        else {
                            if (x[9] <= 133.0) {
                                votes[2] += -0.003185839;
                            }

                            else {
                                votes[2] += 0.001555668;
                            }
                        }

                        // tree #118
                        if (x[16] <= 1.0) {
                            if (x[10] <= 79.0) {
                                votes[0] += -0.006169952;
                            }

                            else {
                                votes[0] += 0.0049987165;
                            }
                        }

                        else {
                            if (x[10] <= 64.0) {
                                votes[0] += 0.01298773;
                            }

                            else {
                                votes[0] += -0.0022524146;
                            }
                        }

                        // tree #119
                        if (x[9] <= 96.0) {
                            if (x[8] <= 153.0) {
                                votes[1] += -0.07608377;
                            }

                            else {
                                votes[1] += -0.0031585768;
                            }
                        }

                        else {
                            if (x[12] <= 2.0) {
                                votes[1] += -0.0013701039;
                            }

                            else {
                                votes[1] += 0.0022068487;
                            }
                        }

                        // tree #120
                        if (x[9] <= 171.0) {
                            if (x[9] <= 165.0) {
                                votes[2] += -0.000106237865;
                            }

                            else {
                                votes[2] += 0.008152481;
                            }
                        }

                        else {
                            if (x[0] <= 51.0) {
                                votes[2] += -0.0134258885;
                            }

                            else {
                                votes[2] += 0.004002563;
                            }
                        }

                        // tree #121
                        if (x[17] <= 1.0) {
                            if (x[5] <= 23.94) {
                                votes[0] += -0.005049936;
                            }

                            else {
                                votes[0] += 0.0012066396;
                            }
                        }

                        else {
                            if (x[5] <= 17.11) {
                                votes[0] += 0.026797155;
                            }

                            else {
                                votes[0] += 0.00066776515;
                            }
                        }

                        // tree #122
                        if (x[8] <= 165.4) {
                            if (x[9] <= 166.0) {
                                votes[1] += 0.0008206511;
                            }

                            else {
                                votes[1] += 0.01933212;
                            }
                        }

                        else {
                            if (x[8] <= 195.3) {
                                votes[1] += -0.003727133;
                            }

                            else {
                                votes[1] += 0.0006056488;
                            }
                        }

                        // tree #123
                        if (x[10] <= 62.0) {
                            if (x[8] <= 203.7) {
                                votes[2] += -0.019962171;
                            }

                            else {
                                votes[2] += 0.023123717;
                            }
                        }

                        else {
                            if (x[10] <= 63.0) {
                                votes[2] += -0.015753945;
                            }

                            else {
                                votes[2] += 9.035807e-05;
                            }
                        }

                        // tree #124
                        if (x[9] <= 171.0) {
                            if (x[9] <= 162.0) {
                                votes[0] += 0.00017281492;
                            }

                            else {
                                votes[0] += -0.008007302;
                            }
                        }

                        else {
                            if (x[8] <= 183.0) {
                                votes[0] += -0.018428003;
                            }

                            else {
                                votes[0] += 0.011438949;
                            }
                        }

                        // tree #125
                        if (x[8] <= 239.3) {
                            if (x[8] <= 216.0) {
                                votes[1] += -0.0006021238;
                            }

                            else {
                                votes[1] += 0.005665704;
                            }
                        }

                        else {
                            if (x[8] <= 244.1) {
                                votes[1] += -0.016125241;
                            }

                            else {
                                votes[1] += -0.00015325785;
                            }
                        }

                        // tree #126
                        if (x[0] <= 33.0) {
                            if (x[10] <= 62.0) {
                                votes[2] += 0.031086007;
                            }

                            else {
                                votes[2] += 0.0014185206;
                            }
                        }

                        else {
                            if (x[8] <= 299.4) {
                                votes[2] += -0.0006837965;
                            }

                            else {
                                votes[2] += 0.031043995;
                            }
                        }

                        // tree #127
                        if (x[13] <= 1.0) {
                            if (x[18] <= 181.0) {
                                votes[0] += -0.0001922467;
                            }

                            else {
                                votes[0] += 0.0146891875;
                            }
                        }

                        else {
                            if (x[5] <= 35.16) {
                                votes[0] += 0.00010482848;
                            }

                            else {
                                votes[0] += -0.0060275528;
                            }
                        }

                        // tree #128
                        if (x[5] <= 39.7) {
                            if (x[5] <= 39.61) {
                                votes[1] += 5.8987684e-05;
                            }

                            else {
                                votes[1] += 0.030150741;
                            }
                        }

                        else {
                            if (x[15] <= 1.0) {
                                votes[1] += -0.002000949;
                            }

                            else {
                                votes[1] += -0.05046008;
                            }
                        }

                        // tree #129
                        if (x[0] <= 23.0) {
                            if (x[9] <= 156.0) {
                                votes[2] += 0.001652865;
                            }

                            else {
                                votes[2] += -0.021026626;
                            }
                        }

                        else {
                            if (x[0] <= 33.0) {
                                votes[2] += 0.0051698308;
                            }

                            else {
                                votes[2] += -0.00047936832;
                            }
                        }

                        // tree #130
                        if (x[10] <= 101.0) {
                            if (x[9] <= 95.0) {
                                votes[0] += 0.013474084;
                            }

                            else {
                                votes[0] += -0.0024042476;
                            }
                        }

                        else {
                            if (x[0] <= 88.0) {
                                votes[0] += 0.0023661577;
                            }

                            else {
                                votes[0] += -0.021279214;
                            }
                        }

                        // tree #131
                        if (x[9] <= 96.0) {
                            if (x[18] <= 112.0) {
                                votes[1] += -0.030411636;
                            }

                            else {
                                votes[1] += -0.00023976779;
                            }
                        }

                        else {
                            if (x[9] <= 97.0) {
                                votes[1] += 0.017070329;
                            }

                            else {
                                votes[1] += 0.00014632363;
                            }
                        }

                        // tree #132
                        if (x[15] <= 1.0) {
                            if (x[9] <= 156.0) {
                                votes[2] += 0.001517811;
                            }

                            else {
                                votes[2] += -0.002282576;
                            }
                        }

                        else {
                            if (x[10] <= 117.0) {
                                votes[2] += 0.0004857728;
                            }

                            else {
                                votes[2] += -0.016671192;
                            }
                        }

                        // return argmax of votes
                        uint8_t classIdx = 0;
                        float maxVotes = votes[0];

                        for (uint8_t i = 1; i < 3; i++) {
                            if (votes[i] > maxVotes) {
                                classIdx = i;
                                maxVotes = votes[i];
                            }
                        }

                        return classIdx;
                    }

                protected:
                };
            }
        }
    }